#mdl#2#2345
#rdr#2/0/0
10:u0:%x[0,0],
21:um_1:%x[-1,0]/%x[0,0],
#qrk#77
1:O,
17:B-toloc.city_name,
22:B-depart_date.day_name,
27:B-depart_time.period_of_day,
19:B-fromloc.city_name,
14:B-airline_name,
15:B-cost_relative,
13:B-flight_time,
27:B-depart_time.time_relative,
18:B-depart_time.time,
12:B-flight_mod,
20:B-fromloc.state_name,
19:B-stoploc.city_name,
11:B-city_name,
24:B-depart_date.day_number,
24:B-depart_date.month_name,
22:B-fromloc.airport_name,
15:B-aircraft_code,
18:B-arrive_time.time,
18:B-toloc.state_name,
12:B-class_type,
20:B-fromloc.state_code,
15:B-flight_number,
12:B-round_trip,
13:B-flight_stop,
14:B-airline_code,
27:B-arrive_time.period_of_day,
16:B-transport_type,
14:B-airport_name,
18:B-depart_date.year,
13:B-fare_amount,
24:B-depart_time.period_mod,
9:B-connect,
27:B-arrive_time.time_relative,
18:B-meal_description,
12:B-state_code,
8:B-return,
24:B-return_date.month_name,
24:B-return_date.day_number,
5:B-mod,
9:B-economy,
13:B-flight_days,
20:B-toloc.airport_name,
28:B-depart_date.today_relative,
17:B-fare_basis_code,
27:B-depart_date.date_relative,
27:B-arrive_date.date_relative,
22:B-arrive_date.day_name,
18:B-restriction_code,
24:B-arrive_date.month_name,
24:B-arrive_date.day_number,
11:B-meal_code,
6:B-meal,
20:B-toloc.airport_code,
24:B-arrive_time.period_mod,
18:B-toloc.state_code,
4:B-or,
24:B-depart_time.start_time,
22:B-depart_time.end_time,
24:B-arrive_time.start_time,
22:B-arrive_time.end_time,
22:B-fromloc.airport_code,
16:B-today_relative,
12:B-state_name,
15:B-period_of_day,
10:B-day_name,
6:B-time,
27:B-return_date.date_relative,
14:B-airport_code,
12:B-month_name,
12:B-day_number,
20:B-stoploc.state_code,
20:B-toloc.country_name,
28:B-return_date.today_relative,
28:B-arrive_date.today_relative,
24:B-return_time.period_mod,
27:B-return_time.period_of_day,
#qrk#4479
4:u0:i,
11:um_1:_x-1/i,
7:u0:also,
11:um_1:i/also,
7:u0:need,
14:um_1:also/need,
5:u0:to,
12:um_1:need/to,
5:u0:go,
10:um_1:to/go,
10:um_1:go/to,
14:u0:airportCity,
19:um_1:to/airportCity,
5:u0:on,
19:um_1:airportCity/on,
11:u0:daysName,
16:um_1:on/daysName,
10:u0:evening,
21:um_1:daysName/evening,
7:u0:from,
17:um_1:evening/from,
9:u0:dallas,
16:um_1:from/dallas,
6:u0:i'd,
13:um_1:_x-1/i'd,
7:u0:like,
13:um_1:i'd/like,
12:um_1:like/to,
6:u0:fly,
11:um_1:to/fly,
23:u0:continental-airlines,
29:um_1:fly/continental-airlines,
10:u0:between,
33:um_1:continental-airlines/between,
9:u0:boston,
19:um_1:between/boston,
6:u0:and,
15:um_1:boston/and,
20:um_1:and/airportCity,
7:u0:find,
12:um_1:to/find,
6:u0:the,
13:um_1:find/the,
11:u0:cheapest,
17:um_1:the/cheapest,
7:u0:fare,
18:um_1:cheapest/fare,
14:um_1:fare/from,
21:um_1:from/airportCity,
19:um_1:airportCity/to,
14:um_1:to/dallas,
11:um_1:i/need,
13:um_1:fly/from,
16:um_1:from/boston,
14:um_1:boston/to,
9:u0:please,
23:um_1:airportCity/please,
7:u0:give,
16:um_1:please/give,
5:u0:me,
12:um_1:give/me,
11:um_1:me/the,
24:u0:times-of-your-flights,
30:um_1:the/times-of-your-flights,
5:u0:in,
29:um_1:times-of-your-flights/in,
11:um_1:in/the,
10:u0:morning,
16:um_1:the/morning,
9:u0:before,
19:um_1:morning/before,
12:u0:8-o'clock,
21:um_1:before/8-o'clock,
16:um_1:fly/between,
24:um_1:between/airportCity,
20:um_1:airportCity/and,
7:u0:what,
14:um_1:_x-1/what,
10:u0:flights,
17:um_1:what/flights,
5:u0:do,
15:um_1:flights/do,
6:u0:you,
11:um_1:do/you,
7:u0:have,
13:um_1:you/have,
10:u0:leaving,
17:um_1:have/leaving,
24:um_1:leaving/airportCity,
11:u0:arriving,
17:um_1:and/arriving,
16:um_1:arriving/in,
19:um_1:in/airportCity,
5:u0:is,
12:um_1:_x-1/is,
8:u0:there,
13:um_1:is/there,
4:u0:a,
12:um_1:there/a,
9:u0:flight,
13:um_1:a/flight,
19:um_1:flight/leaving,
8:u0:would,
12:um_1:i/would,
15:um_1:would/like,
13:um_1:like/the,
7:u0:time,
13:um_1:the/time,
7:u0:your,
14:um_1:time/your,
11:u0:earliest,
18:um_1:your/earliest,
20:um_1:earliest/flight,
16:um_1:flight/from,
5:u0:of,
12:um_1:time/of,
12:um_1:of/your,
14:um_1:flight/in,
17:um_1:morning/from,
20:u0:american-airlines,
25:um_1:on/american-airlines,
14:u0:information,
21:um_1:like/information,
19:um_1:information/on,
28:um_1:on/continental-airlines,
33:um_1:continental-airlines/flights,
17:um_1:flights/from,
21:um_1:_x-1/information,
27:um_1:american-airlines/from,
13:u0:fort-worth,
20:um_1:from/fort-worth,
8:u0:texas,
21:um_1:fort-worth/texas,
13:um_1:texas/to,
21:um_1:need/information,
9:um_1:on/a,
18:um_1:to/fort-worth,
15:um_1:on/flights,
7:u0:that,
21:um_1:airportCity/that,
15:um_1:that/would,
7:u0:stop,
15:um_1:would/stop,
12:um_1:stop/in,
18:um_1:in/fort-worth,
21:um_1:information/from,
6:u0:for,
20:um_1:information/for,
10:um_1:for/a,
14:um_1:_x-1/need,
11:um_1:need/a,
16:um_1:_x-1/flight,
23:um_1:flight/information,
11:u0:airlines,
18:um_1:what/airlines,
17:um_1:airlines/fly,
9:u0:ground,
16:um_1:what/ground,
17:u0:transportation,
26:um_1:ground/transportation,
22:um_1:transportation/is,
15:um_1:there/from,
13:um_1:from/the,
10:u0:airport,
16:um_1:the/airport,
15:um_1:airport/in,
11:u0:downtown,
16:um_1:to/downtown,
13:um_1:there/in,
17:um_1:there/ground,
24:um_1:transportation/from,
14:um_1:to/boston,
14:um_1:boston/on,
17:um_1:daysName/the,
15:u0:twenty-first,
21:um_1:the/twenty-first,
17:um_1:_x-1/leaving,
9:u0:flying,
23:um_1:airportCity/flying,
14:um_1:flying/to,
23:um_1:airportCity/before,
7:u0:10am,
16:um_1:before/10am,
14:um_1:10am/what,
7:u0:type,
14:um_1:what/type,
12:um_1:type/of,
11:u0:aircraft,
16:um_1:of/aircraft,
16:um_1:aircraft/is,
7:u0:used,
12:um_1:is/used,
6:u0:all,
13:um_1:_x-1/all,
8:u0:right,
14:um_1:all/right,
16:um_1:right/would,
14:um_1:would/you,
6:u0:let,
12:um_1:you/let,
11:um_1:let/me,
7:u0:know,
12:um_1:me/know,
14:um_1:know/type,
18:u0:united-airlines,
29:um_1:aircraft/united-airlines,
23:um_1:united-airlines/is,
8:u0:using,
13:um_1:is/using,
13:um_1:using/on,
11:um_1:on/the,
16:um_1:the/flights,
18:um_1:airportCity/i,
12:um_1:to/know,
13:um_1:know/the,
13:um_1:the/type,
18:um_1:aircraft/that,
7:u0:they,
14:um_1:that/they,
6:u0:use,
13:um_1:they/use,
11:um_1:use/on,
8:u0:these,
13:um_1:on/these,
18:um_1:these/flights,
19:um_1:flights/before,
5:u0:10,
14:um_1:before/10,
10:um_1:10/in,
12:um_1:_x-1/on,
23:um_1:on/united-airlines,
25:um_1:united-airlines/give,
15:u0:flight-times,
21:um_1:the/flight-times,
22:um_1:flight-times/from,
12:um_1:have/in,
15:um_1:morning/of,
13:u0:monthsName,
18:um_1:of/monthsName,
12:u0:twentieth,
25:um_1:monthsName/twentieth,
17:um_1:twentieth/on,
25:um_1:united-airlines/from,
10:um_1:and/a,
11:u0:stopover,
15:um_1:a/stopover,
16:um_1:stopover/in,
7:u0:wish,
11:um_1:i/wish,
12:um_1:wish/to,
16:um_1:please/find,
5:u0:an,
12:um_1:find/an,
10:u0:airline,
15:um_1:an/airline,
16:um_1:airline/for,
11:um_1:for/me,
8:u0:plane,
12:um_1:a/plane,
15:um_1:plane/from,
16:um_1:what/flight,
14:um_1:flight/is,
12:u0:available,
17:um_1:is/available,
5:u0:at,
17:um_1:available/at,
11:u0:noontime,
16:um_1:at/noontime,
18:um_1:noontime/from,
21:um_1:airportCity/what,
9:u0:around,
21:um_1:available/around,
20:um_1:around/noontime,
14:um_1:flight/on,
30:um_1:continental-airlines/from,
19:u0:eastern-airlines,
24:um_1:on/eastern-airlines,
26:um_1:eastern-airlines/from,
7:u0:does,
14:um_1:_x-1/does,
27:um_1:does/american-airlines,
26:um_1:american-airlines/fly,
11:um_1:like/a,
5:u0:as,
14:um_1:flight/as,
8:u0:early,
13:um_1:as/early,
13:um_1:early/as,
11:u0:possible,
16:um_1:as/possible,
16:um_1:possible/in,
6:u0:day,
12:um_1:the/day,
16:um_1:day/leaving,
17:um_1:leaving/from,
11:um_1:and/to,
19:um_1:available/from,
17:u0:denver-airport,
23:um_1:the/denver-airport,
22:um_1:denver-airport/to,
25:um_1:downtown/airportCity,
16:um_1:_x-1/please,
9:u0:repeat,
18:um_1:please/repeat,
15:um_1:repeat/the,
15:um_1:the/flight,
13:u0:departures,
22:um_1:flight/departures,
19:um_1:departures/for,
17:um_1:for/daysName,
24:um_1:daysName/monthsName,
13:u0:nineteenth,
26:um_1:monthsName/nineteenth,
20:um_1:nineteenth/from,
8:u0:we're,
15:um_1:_x-1/we're,
8:u0:going,
16:um_1:we're/going,
15:um_1:going/from,
7:u0:want,
11:um_1:i/want,
12:um_1:want/to,
11:um_1:go/and,
7:u0:take,
13:um_1:and/take,
11:um_1:take/a,
13:um_1:plane/in,
12:um_1:and/fly,
11:um_1:fly/to,
12:um_1:_x-1/do,
11:um_1:have/a,
16:um_1:boston/that,
7:u0:will,
14:um_1:that/will,
14:um_1:will/stop,
12:u0:9-o'clock,
16:um_1:a/9-o'clock,
21:um_1:9-o'clock/flight,
15:um_1:the/ground,
9:u0:travel,
18:um_1:ground/travel,
21:um_1:travel/available,
17:um_1:available/in,
6:u0:out,
13:um_1:find/out,
12:um_1:out/the,
12:um_1:what/is,
11:um_1:is/the,
29:um_1:transportation/available,
7:u0:city,
13:um_1:the/city,
12:um_1:city/of,
18:um_1:of/fort-worth,
5:u0:am,
9:um_1:i/am,
13:u0:interested,
18:um_1:am/interested,
18:um_1:interested/in,
9:um_1:in/a,
10:um_1:on/an,
16:um_1:an/aircraft,
9:u0:number,
20:um_1:aircraft/number,
6:u0:727,
15:um_1:number/727,
10:um_1:727/i,
12:um_1:go/from,
6:u0:i'm,
13:um_1:_x-1/i'm,
19:um_1:i'm/interested,
14:um_1:dallas/to,
12:um_1:and/i'm,
13:um_1:i'm/also,
20:um_1:also/interested,
13:um_1:in/going,
13:um_1:going/to,
9:um_1:a/to,
21:um_1:aircraft/leaving,
8:u0:bound,
22:um_1:airportCity/bound,
13:um_1:bound/to,
7:u0:this,
18:um_1:daysName/this,
7:u0:week,
14:um_1:this/week,
6:u0:any,
29:um_1:continental-airlines/any,
8:u0:class,
14:um_1:any/class,
10:u0:service,
18:um_1:class/service,
17:um_1:service/from,
6:u0:yes,
13:um_1:_x-1/yes,
11:um_1:yes/on,
8:u0:delta,
14:um_1:the/delta,
17:um_1:delta/flight,
19:um_1:airportCity/at,
8:u0:225pm,
13:um_1:at/225pm,
19:um_1:225pm/arriving,
25:um_1:arriving/airportCity,
9:u0:1158pm,
23:um_1:airportCity/1158pm,
16:um_1:1158pm/what,
12:u0:equipment,
17:um_1:of/equipment,
17:um_1:equipment/is,
12:um_1:used/on,
12:um_1:on/that,
16:um_1:that/flight,
10:u0:looking,
16:um_1:i'm/looking,
16:um_1:looking/for,
12:u0:traveling,
26:um_1:airportCity/traveling,
17:um_1:traveling/to,
11:u0:stopping,
17:um_1:and/stopping,
16:um_1:stopping/at,
19:um_1:at/airportCity,
19:um_1:airportCity/is,
12:um_1:is/this,
18:um_1:this/possible,
9:u0:ticket,
13:um_1:a/ticket,
19:um_1:ticket/leaving,
11:u0:colorado,
25:um_1:airportCity/colorado,
16:um_1:colorado/to,
10:u0:georgia,
24:um_1:airportCity/georgia,
7:u0:with,
17:um_1:georgia/with,
11:um_1:with/a,
11:um_1:a/stop,
16:um_1:ticket/from,
21:um_1:airportCity/with,
14:um_1:ticket/on,
14:u0:coach-class,
18:um_1:a/coach-class,
5:u0:or,
19:um_1:coach-class/or,
9:u0:lowest,
14:um_1:or/lowest,
16:um_1:lowest/fare,
16:um_1:fare/ticket,
6:u0:buy,
11:um_1:to/buy,
10:um_1:buy/a,
23:um_1:coach-class/ticket,
15:um_1:ticket/for,
14:um_1:to/travel,
16:um_1:travel/from,
5:u0:dc,
19:um_1:airportCity/dc,
10:um_1:dc/to,
18:um_1:on/monthsName,
18:um_1:boston/flight,
6:u0:324,
15:um_1:flight/324,
11:um_1:324/on,
12:um_1:is/your,
18:um_1:your/cheapest,
20:um_1:cheapest/flight,
10:u0:one-way,
21:um_1:cheapest/one-way,
17:um_1:one-way/fare,
15:um_1:_x-1/would,
7:u0:tell,
13:um_1:you/tell,
12:um_1:tell/me,
11:u0:american,
17:um_1:the/american,
20:um_1:american/flight,
6:u0:813,
15:um_1:flight/813,
13:um_1:813/from,
18:um_1:airportCity/a,
10:u0:nonstop,
14:um_1:a/nonstop,
19:um_1:nonstop/flight,
16:um_1:flight/that,
7:u0:goes,
14:um_1:that/goes,
11:u0:straight,
18:um_1:goes/straight,
10:u0:through,
21:um_1:straight/through,
17:um_1:through/from,
19:u0:without-stopping,
33:um_1:airportCity/without-stopping,
24:um_1:without-stopping/at,
10:u0:another,
15:um_1:at/another,
17:um_1:another/city,
5:u0:if,
12:um_1:know/if,
9:um_1:if/i,
10:um_1:i/fly,
11:um_1:fly/on,
16:um_1:on/american,
18:um_1:flight/number,
15:um_1:number/813,
19:um_1:airportCity/if,
11:um_1:i/will,
10:u0:enroute,
17:um_1:stop/enroute,
15:um_1:enroute/at,
6:u0:twa,
11:um_1:on/twa,
5:u0:it,
10:um_1:is/it,
16:um_1:it/possible,
17:um_1:possible/for,
10:um_1:me/to,
20:um_1:_x-1/monthsName,
17:um_1:monthsName/i,
14:um_1:on/flight,
9:u0:us-air,
18:um_1:flight/us-air,
7:u0:2153,
16:um_1:us-air/2153,
14:um_1:2153/from,
14:um_1:what/time,
13:um_1:time/and,
13:um_1:and/what,
14:um_1:what/city,
14:um_1:city/does,
13:um_1:does/the,
14:um_1:the/plane,
15:um_1:plane/stop,
15:um_1:in/between,
14:um_1:dallas/on,
12:um_1:_x-1/an,
25:um_1:an/american-airlines,
29:um_1:american-airlines/flight,
14:u0:first-class,
23:um_1:flight/first-class,
21:um_1:first-class/from,
11:um_1:_x-1/a,
33:um_1:continental-airlines/leaving,
19:um_1:leaving/boston,
14:um_1:and/going,
14:u0:continental,
21:um_1:does/continental,
20:um_1:continental/fly,
11:um_1:do/any,
11:um_1:any/of,
11:um_1:of/the,
20:um_1:the/continental,
24:um_1:continental/flights,
21:um_1:airportCity/stop,
14:um_1:time/does,
8:u0:leave,
17:um_1:flight/leave,
22:um_1:leave/airportCity,
22:um_1:airportCity/going,
8:u0:after,
18:um_1:leaving/after,
13:u0:12-o'clock,
21:um_1:after/12-o'clock,
18:um_1:12-o'clock/in,
12:u0:afternoon,
18:um_1:the/afternoon,
15:um_1:number/for,
12:um_1:for/the,
23:um_1:continental/flight,
8:u0:which,
17:um_1:flight/which,
9:u0:leaves,
17:um_1:which/leaves,
23:um_1:leaves/airportCity,
9:u0:1220pm,
14:um_1:at/1220pm,
15:um_1:1220pm/and,
13:um_1:and/goes,
12:um_1:goes/to,
9:um_1:me/a,
17:um_1:boston/going,
25:um_1:airportCity/arriving,
12:u0:5-o'clock,
17:um_1:at/5-o'clock,
17:um_1:5-o'clock/in,
14:u0:lowest-cost,
20:um_1:the/lowest-cost,
20:um_1:lowest-cost/for,
14:um_1:a/one-way,
19:um_1:one-way/ticket,
14:um_1:boston/at,
8:u0:645am,
13:um_1:at/645am,
16:um_1:645am/going,
13:u0:round-trip,
24:um_1:cheapest/round-trip,
20:um_1:round-trip/fare,
17:um_1:fare/between,
17:um_1:the/earliest,
6:u0:how,
13:um_1:_x-1/how,
7:u0:long,
13:um_1:how/long,
14:um_1:long/does,
12:um_1:does/it,
12:um_1:it/take,
12:um_1:take/to,
6:u0:get,
11:um_1:to/get,
13:um_1:get/from,
18:u0:atlanta-airport,
25:um_1:from/atlanta-airport,
7:u0:into,
25:um_1:atlanta-airport/into,
13:um_1:into/the,
19:um_1:of/airportCity,
13:um_1:there/an,
20:u0:airport-limousine,
25:um_1:an/airport-limousine,
25:um_1:airport-limousine/at,
11:um_1:at/the,
24:um_1:the/atlanta-airport,
16:um_1:fare/please,
13:um_1:the/fare,
13:um_1:fare/for,
19:um_1:one-way/flight,
8:u0:again,
15:um_1:_x-1/again,
12:um_1:again/i,
16:um_1:will/repeat,
13:um_1:repeat/i,
7:u0:make,
12:um_1:to/make,
11:um_1:make/a,
21:um_1:airportCity/will,
13:um_1:will/you,
11:um_1:me/how,
7:u0:much,
13:um_1:how/much,
13:um_1:much/the,
8:u0:fares,
14:um_1:the/fares,
6:u0:are,
14:um_1:fares/are,
10:um_1:are/i,
17:um_1:a/round-trip,
23:um_1:round-trip/between,
9:u0:latest,
15:um_1:the/latest,
18:um_1:latest/flight,
17:um_1:the/daysName,
21:um_1:daysName/morning,
6:u0:755,
16:um_1:morning/755,
15:um_1:755/flight,
9:u0:arrive,
23:um_1:airportCity/arrive,
14:um_1:arrive/in,
19:um_1:latest/evening,
19:um_1:evening/flight,
20:um_1:airportCity/for,
20:um_1:for/airportCity,
16:um_1:the/evening,
11:u0:schedule,
21:um_1:evening/schedule,
16:um_1:schedule/of,
15:um_1:of/flights,
15:u0:twenty-ninth,
28:um_1:monthsName/twenty-ninth,
15:u0:twenty-third,
28:um_1:monthsName/twenty-third,
20:um_1:twenty-third/of,
12:um_1:of/this,
7:u0:year,
14:um_1:this/year,
7:u0:1991,
14:um_1:year/1991,
13:um_1:1991/i'd,
12:um_1:and/i'd,
13:um_1:on/delta,
7:u0:okay,
14:um_1:_x-1/okay,
13:um_1:okay/i'd,
16:um_1:that/leaves,
18:um_1:leaves/before,
6:u0:8am,
15:um_1:before/8am,
8:u0:hello,
15:um_1:_x-1/hello,
14:um_1:hello/i'd,
12:um_1:a/delta,
8:u0:let's,
15:um_1:okay/let's,
6:u0:see,
14:um_1:let's/see,
11:um_1:see/do,
16:u0:delta-airline,
21:um_1:on/delta-airline,
23:um_1:delta-airline/from,
11:um_1:all/do,
8:u0:stops,
15:um_1:that/stops,
13:um_1:stops/in,
12:um_1:goes/on,
10:um_1:on/to,
13:um_1:okay/all,
13:um_1:right/do,
9:u0:united,
13:um_1:a/united,
18:um_1:united/flight,
17:um_1:leaves/after,
8:u0:815am,
16:um_1:after/815am,
8:u0:could,
15:um_1:okay/could,
14:um_1:could/you,
12:um_1:me/what,
18:um_1:flight/leaves,
18:um_1:leaves/dallas,
5:u0:by,
19:um_1:airportCity/by,
17:u0:united-airline,
22:um_1:by/united-airline,
13:um_1:have/any,
16:um_1:any/flights,
28:um_1:flights/united-airlines,
14:um_1:know/what,
27:um_1:flights/united-airline,
6:u0:has,
23:um_1:united-airline/has,
13:um_1:has/from,
11:um_1:if/you,
7:u0:some,
14:um_1:like/some,
21:um_1:some/information,
21:um_1:earliest/flights,
16:um_1:flights/you,
23:um_1:atlanta-airport/to,
20:um_1:flights/leaving,
19:um_1:airportCity/in,
23:um_1:afternoon/arriving,
14:um_1:in/dallas,
15:um_1:_x-1/could,
8:u0:about,
13:um_1:me/about,
17:um_1:about/ground,
15:u0:arrangements,
32:um_1:transportation/arrangements,
22:um_1:arrangements/from,
17:u0:dallas-airport,
23:um_1:the/dallas-airport,
22:um_1:dallas-airport/to,
20:um_1:downtown/dallas,
6:u0:can,
13:um_1:_x-1/can,
12:um_1:can/you,
27:um_1:transportation/between,
16:um_1:between/the,
23:um_1:dallas-airport/and,
17:um_1:and/downtown,
13:um_1:okay/can,
16:um_1:leaves/from,
13:um_1:okay/and,
12:um_1:and/can,
11:um_1:me/for,
16:um_1:for/flights,
12:u0:departing,
22:um_1:flights/departing,
19:um_1:departing/from,
20:um_1:airportCity/the,
15:um_1:flight/you,
14:um_1:you/would,
15:um_1:would/have,
19:um_1:have/departing,
11:um_1:time/a,
17:um_1:flight/would,
16:um_1:would/leave,
15:um_1:leave/from,
14:um_1:boston/in,
23:um_1:does/delta-airline,
22:um_1:delta-airline/fly,
10:u0:airfare,
16:um_1:the/airfare,
17:um_1:airfare/from,
13:um_1:what/are,
12:um_1:are/the,
6:u0:air,
12:um_1:the/air,
15:u0:restrictions,
21:um_1:air/restrictions,
20:um_1:restrictions/on,
15:um_1:airfare/of,
14:u0:416-dollars,
19:um_1:of/416-dollars,
7:u0:book,
12:um_1:to/book,
11:um_1:book/a,
8:u0:coach,
22:um_1:airportCity/coach,
11:u0:discount,
19:um_1:coach/discount,
18:um_1:discount/fare,
10:u0:arrange,
15:um_1:to/arrange,
14:um_1:arrange/a,
10:um_1:yes/i,
14:um_1:find/what,
16:um_1:flights/are,
18:um_1:are/available,
10:u0:seventh,
23:um_1:monthsName/seventh,
17:um_1:seventh/that,
14:um_1:leaves/in,
13:um_1:time/are,
20:um_1:flight/possible,
18:um_1:possible/from,
11:um_1:8am/is,
7:u0:such,
15:um_1:there/such,
11:um_1:such/a,
13:um_1:to/leave,
17:um_1:daysName/and,
11:u0:sometime,
19:um_1:leave/sometime,
16:um_1:sometime/in,
14:um_1:boston/as,
13:um_1:early/in,
15:um_1:morning/as,
9:um_1:as/i,
10:um_1:i/can,
9:u0:return,
13:um_1:a/return,
18:um_1:return/flight,
15:um_1:the/lowest,
13:um_1:_x-1/are,
14:um_1:are/there,
14:um_1:there/any,
9:u0:direct,
15:um_1:any/direct,
19:um_1:direct/flights,
22:um_1:airportCity/about,
10:u0:12-noon,
18:um_1:about/12-noon,
13:um_1:a/direct,
18:um_1:direct/flight,
10:u0:arrives,
17:um_1:that/arrives,
15:um_1:arrives/in,
23:um_1:airportCity/around,
19:um_1:around/12-noon,
14:um_1:me/direct,
19:um_1:direct/morning,
20:um_1:morning/flights,
18:um_1:dallas/arrive,
18:um_1:arrive/dallas,
17:um_1:dallas/about,
13:um_1:flight/i,
13:um_1:can/take,
14:um_1:take/from,
14:um_1:on/us-air,
19:um_1:us-air/leaving,
15:um_1:leaving/at,
6:u0:420,
11:um_1:at/420,
13:um_1:420/what,
20:um_1:the/first-class,
21:um_1:first-class/fare,
12:um_1:fare/on,
11:um_1:want/a,
24:um_1:airportCity/leaving,
4:u0:5,
13:um_1:around/5,
9:um_1:5/in,
12:um_1:to/take,
12:um_1:dc/stop,
13:um_1:and/with,
5:u0:my,
12:um_1:with/my,
8:u0:final,
13:um_1:my/final,
14:u0:destination,
22:um_1:final/destination,
19:um_1:destination/as,
19:um_1:as/airportCity,
12:u0:originate,
17:um_1:to/originate,
17:um_1:originate/my,
14:um_1:my/flight,
13:um_1:with/the,
20:um_1:the/destination,
21:um_1:destination/city,
24:um_1:fly/united-airlines,
17:u0:delta-airlines,
23:um_1:fly/delta-airlines,
24:um_1:delta-airlines/from,
14:um_1:in/flying,
16:um_1:flying/from,
15:um_1:boston/i'd,
9:u0:during,
15:um_1:fly/during,
12:u0:breakfast,
21:um_1:during/breakfast,
8:u0:first,
15:um_1:_x-1/first,
14:um_1:first/i'd,
15:um_1:dallas/and,
18:um_1:about/flights,
16:um_1:dallas/that,
18:u0:early-afternoon,
24:um_1:the/early-afternoon,
15:um_1:dallas/the,
9:u0:should,
19:um_1:flights/should,
17:um_1:should/leave,
16:u0:approximately,
21:um_1:at/approximately,
8:u0:615pm,
24:um_1:approximately/615pm,
17:u0:boston-airport,
24:um_1:from/boston-airport,
22:um_1:boston-airport/to,
20:um_1:boston/downtown,
20:um_1:between/airport,
16:um_1:airport/and,
16:um_1:downtown/in,
14:um_1:in/boston,
18:um_1:_x-1/earliest,
12:um_1:book/on,
22:um_1:on/delta-airlines,
8:u0:their,
25:um_1:delta-airlines/their,
19:um_1:their/earliest,
22:um_1:earliest/possible,
20:um_1:possible/flight,
16:um_1:please/book,
13:um_1:book/for,
13:um_1:twa/from,
25:u0:earliest-possible-time,
39:um_1:airportCity/earliest-possible-time,
21:um_1:airportCity/from,
12:um_1:_x-1/my,
11:u0:question,
16:um_1:my/question,
16:um_1:question/is,
9:um_1:is/i,
10:um_1:and/i,
7:u0:live,
11:um_1:i/live,
12:um_1:live/in,
23:um_1:united-airlines/do,
12:um_1:have/an,
13:um_1:an/early,
17:um_1:early/flight,
19:um_1:please/arrange,
15:um_1:flight/for,
12:um_1:me/from,
9:u0:trying,
15:um_1:i'm/trying,
14:um_1:trying/to,
13:u0:connection,
17:um_1:a/connection,
23:um_1:connection/between,
21:um_1:airportCity/does,
8:u0:those,
18:um_1:between/those,
6:u0:two,
14:um_1:those/two,
12:u0:thirtieth,
25:um_1:monthsName/thirtieth,
16:um_1:thirtieth/i,
14:um_1:the/early,
13:um_1:early/am,
10:um_1:a/twa,
15:um_1:twa/flight,
18:um_1:leaving/early,
15:um_1:morning/to,
16:u0:early-morning,
22:um_1:the/early-morning,
17:um_1:what/airline,
8:u0:flies,
18:um_1:airline/flies,
18:um_1:flies/between,
14:um_1:on/ground,
7:u0:fine,
14:um_1:_x-1/fine,
13:um_1:fine/can,
13:um_1:you/give,
19:um_1:me/information,
22:um_1:transportation/in,
7:u0:help,
13:um_1:you/help,
12:um_1:help/me,
12:um_1:me/with,
16:um_1:with/ground,
31:um_1:transportation/information,
18:um_1:information/i,
22:um_1:on/transportation,
6:u0:747,
10:um_1:a/747,
13:um_1:747/that,
15:um_1:that/flies,
15:um_1:flies/from,
22:um_1:before/12-o'clock,
18:um_1:12-o'clock/on,
5:u0:be,
11:um_1:you/be,
7:u0:able,
12:um_1:be/able,
12:um_1:able/to,
6:u0:put,
11:um_1:to/put,
11:um_1:put/me,
10:um_1:me/on,
16:um_1:flight/with,
15:um_1:with/delta,
18:um_1:delta/leaving,
16:um_1:leaving/the,
17:u0:twenty-seventh,
30:um_1:monthsName/twenty-seventh,
24:um_1:twenty-seventh/from,
19:um_1:for/monthsName,
7:u0:kind,
14:um_1:what/kind,
12:um_1:kind/of,
16:um_1:aircraft/do,
16:um_1:have/flying,
24:um_1:twenty-seventh/with,
16:um_1:with/us-air,
16:um_1:us-air/from,
19:um_1:have/available,
7:u0:last,
14:um_1:your/last,
7:u0:trip,
14:um_1:last/trip,
12:um_1:trip/on,
8:u0:night,
12:um_1:a/night,
17:um_1:night/flight,
15:um_1:dallas/for,
22:um_1:twenty-seventh/in,
14:um_1:flight/do,
14:um_1:have/from,
15:um_1:evening/of,
13:um_1:i'd/need,
23:um_1:information/please,
14:um_1:please/on,
19:um_1:dc/airportCity,
13:u0:california,
27:um_1:airportCity/california,
19:um_1:flight/between,
24:um_1:airportCity/evening,
20:um_1:evening/flights,
14:um_1:on/boston,
16:um_1:like/flight,
24:um_1:information/between,
27:um_1:airportCity/monthsName,
8:u0:third,
21:um_1:monthsName/third,
16:um_1:_x-1/ground,
26:um_1:transportation/please,
14:um_1:please/in,
17:u0:city-of-boston,
23:um_1:the/city-of-boston,
27:um_1:city-of-boston/between,
34:um_1:transportation/city-of-boston,
16:um_1:have/ground,
17:um_1:from/airport,
15:um_1:airport/to,
20:um_1:downtown/boston,
9:u0:kindly,
16:um_1:_x-1/kindly,
16:um_1:kindly/give,
18:um_1:aircraft/used,
12:um_1:used/to,
10:u0:eastern,
15:um_1:on/eastern,
19:um_1:eastern/flight,
6:u0:825,
15:um_1:flight/825,
13:um_1:825/from,
20:um_1:airportCity/can,
16:um_1:used/before,
19:um_1:before/12-noon,
15:um_1:825/flying,
7:u0:when,
16:um_1:flight/when,
12:um_1:when/it,
14:um_1:it/leaves,
14:um_1:leaves/at,
6:u0:555,
11:um_1:at/555,
17:um_1:_x-1/eastern,
13:um_1:555/what,
18:um_1:aircraft/does,
17:um_1:does/eastern,
16:um_1:eastern/fly,
6:u0:6pm,
15:um_1:before/6pm,
15:um_1:right/what,
13:um_1:what/i'd,
10:um_1:to/do,
10:um_1:do/is,
12:um_1:is/find,
11:um_1:okay/i,
13:um_1:okay/i'm,
8:u0:sorry,
14:um_1:i'm/sorry,
16:um_1:sorry/could,
18:um_1:flights/leave,
15:um_1:and/arrive,
21:um_1:around/5-o'clock,
15:u0:thirty-first,
28:um_1:monthsName/thirty-first,
22:um_1:thirty-first/that,
12:um_1:that/is,
15:um_1:is/nonstop,
7:u0:then,
13:um_1:and/then,
14:um_1:then/from,
20:um_1:airportCity/i'd,
14:um_1:travel/to,
9:u0:fourth,
22:um_1:monthsName/fourth,
7:u0:i'll,
16:um_1:fourth/i'll,
12:um_1:i'll/be,
17:um_1:be/traveling,
19:um_1:traveling/from,
13:um_1:would/be,
11:um_1:be/the,
7:u0:plan,
12:um_1:to/plan,
11:um_1:plan/a,
12:um_1:hello/i,
14:um_1:_x-1/when,
12:um_1:when/is,
14:um_1:the/first,
17:um_1:first/flight,
18:um_1:daysName/that,
9:u0:serves,
16:um_1:that/serves,
21:um_1:serves/breakfast,
21:um_1:earliest/nonstop,
13:um_1:the/last,
16:um_1:last/flight,
20:um_1:cheapest/ticket,
15:um_1:leaving/on,
19:um_1:boston/leaving,
8:u0:fifth,
21:um_1:monthsName/fifth,
18:u0:least-expensive,
24:um_1:the/least-expensive,
27:um_1:least-expensive/flight,
17:um_1:_x-1/one-way,
10:u0:twelfth,
23:um_1:monthsName/twelfth,
14:um_1:_x-1/find,
11:um_1:find/a,
15:um_1:delta/from,
13:um_1:and/give,
10:u0:numbers,
19:um_1:flight/numbers,
10:um_1:go/on,
11:um_1:a/trip,
12:um_1:trip/to,
13:um_1:me/which,
19:um_1:which/airlines,
10:u0:connect,
21:um_1:airlines/connect,
17:um_1:connect/with,
15:um_1:with/those,
9:u0:cities,
15:um_1:two/cities,
22:um_1:airportCity/which,
24:um_1:airlines/monthsName,
10:um_1:i/use,
12:um_1:use/for,
13:um_1:for/this,
14:um_1:this/trip,
14:um_1:trip/from,
11:u0:planning,
17:um_1:i'm/planning,
15:um_1:planning/a,
16:um_1:leave/early,
16:um_1:_x-1/us-air,
6:u0:269,
15:um_1:us-air/269,
16:um_1:269/leaving,
6:u0:428,
11:um_1:at/428,
13:um_1:428/what,
15:u0:arrival-time,
21:um_1:the/arrival-time,
20:um_1:arrival-time/in,
16:um_1:please/tell,
8:u0:times,
14:um_1:the/times,
13:um_1:times/of,
20:um_1:flights/between,
7:u0:cost,
13:um_1:the/cost,
13:um_1:cost/for,
17:um_1:one-way/trip,
12:um_1:cost/of,
9:um_1:of/a,
22:um_1:round-trip/flight,
12:u0:beginning,
26:um_1:airportCity/beginning,
17:um_1:beginning/on,
15:u0:twenty-fifth,
28:um_1:monthsName/twenty-fifth,
21:um_1:twenty-fifth/and,
12:u0:returning,
18:um_1:and/returning,
17:um_1:returning/on,
8:u0:sixth,
21:um_1:monthsName/sixth,
13:um_1:need/the,
20:um_1:cheapest/direct,
14:um_1:_x-1/give,
19:um_1:seventh/please,
8:u0:thank,
15:um_1:_x-1/thank,
14:um_1:thank/you,
12:um_1:you/for,
13:um_1:for/that,
21:um_1:that/information,
6:u0:now,
20:um_1:information/now,
10:um_1:now/i,
14:um_1:the/night,
13:um_1:night/of,
10:u0:sixteen,
23:um_1:monthsName/sixteen,
19:um_1:sixteen/around,
21:um_1:around/9-o'clock,
13:um_1:okay/for,
12:um_1:for/now,
18:um_1:morning/about,
20:um_1:about/8-o'clock,
11:um_1:and/on,
7:u0:four,
20:um_1:monthsName/four,
11:um_1:four/i,
19:um_1:morning/around,
4:u0:8,
13:um_1:around/8,
16:um_1:does/us-air,
16:um_1:us-air/have,
16:um_1:flights/out,
11:um_1:out/of,
14:um_1:okay/what,
10:um_1:do/on,
12:um_1:on/this,
6:u0:one,
13:um_1:this/one,
11:um_1:one/is,
10:um_1:is/go,
16:um_1:nonstop/and,
17:um_1:leave/around,
6:u0:5pm,
15:um_1:around/5pm,
14:um_1:okay/that,
9:u0:sounds,
16:um_1:that/sounds,
8:u0:great,
17:um_1:sounds/great,
16:um_1:great/let's,
13:um_1:let's/go,
13:u0:twenty-one,
26:um_1:monthsName/twenty-one,
18:um_1:twenty-one/in,
27:um_1:dallas/least-expensive,
25:um_1:least-expensive/fare,
17:um_1:fare/one-way,
8:u0:one's,
15:um_1:that/one's,
16:um_1:one's/great,
6:u0:too,
14:um_1:great/too,
12:um_1:too/now,
14:um_1:now/we're,
16:u0:twenty-second,
29:um_1:monthsName/twenty-second,
25:um_1:twenty-second/dallas,
12:u0:nighttime,
21:um_1:latest/nighttime,
12:u0:departure,
24:um_1:nighttime/departure,
22:um_1:departure/one-way,
7:u0:show,
14:um_1:_x-1/show,
17:um_1:show/flights,
24:um_1:flights/first-class,
19:um_1:first-class/on,
30:um_1:american-airlines/between,
19:um_1:between/dallas,
18:um_1:american/from,
20:um_1:show/departures,
19:um_1:departures/and,
11:u0:arrivals,
17:um_1:and/arrivals,
16:um_1:arrivals/in,
26:um_1:for/american-airlines,
14:um_1:how/about,
19:um_1:about/arrivals,
17:um_1:arrivals/for,
17:um_1:for/american,
16:um_1:american/in,
12:um_1:_x-1/of,
11:um_1:of/all,
17:um_1:all/airlines,
19:um_1:airlines/which,
18:um_1:which/airline,
16:um_1:airline/has,
12:um_1:has/the,
7:u0:most,
13:um_1:the/most,
18:um_1:most/arrivals,
20:um_1:most/departures,
20:um_1:departures/from,
7:u0:list,
16:um_1:please/list,
13:um_1:list/all,
20:um_1:all/first-class,
24:um_1:first-class/flights,
15:um_1:flights/on,
14:um_1:on/united,
16:um_1:united/from,
11:um_1:to/see,
10:u0:economy,
16:um_1:see/economy,
20:um_1:economy/flights,
19:um_1:united/between,
15:um_1:all/united,
19:um_1:united/flights,
15:um_1:_x-1/which,
18:um_1:airlines/have,
14:u0:connections,
21:um_1:have/connections,
24:um_1:connections/between,
12:um_1:show/me,
18:um_1:fort-worth/on,
8:u0:tenth,
21:um_1:monthsName/tenth,
15:um_1:tenth/1991,
11:um_1:me/all,
16:um_1:all/flights,
14:um_1:of/boston,
19:um_1:twentieth/that,
14:um_1:that/have,
17:u0:business-class,
24:um_1:have/business-class,
8:u0:daily,
14:um_1:all/daily,
18:um_1:daily/flights,
21:um_1:have/coach-class,
20:u0:stapleton-airport,
25:um_1:to/stapleton-airport,
26:um_1:stapleton-airport/for,
11:u0:tomorrow,
17:um_1:for/tomorrow,
14:um_1:_x-1/list,
19:um_1:the/round-trip,
27:um_1:round-trip/first-class,
17:um_1:airlines/are,
14:u0:represented,
20:um_1:are/represented,
19:um_1:represented/in,
11:u0:database,
17:um_1:the/database,
16:um_1:fifth/after,
6:u0:7pm,
14:um_1:after/7pm,
12:um_1:7pm/and,
19:u0:american-airline,
24:um_1:on/american-airline,
28:um_1:american-airline/flight,
6:u0:315,
15:um_1:flight/315,
16:um_1:does/flight,
5:u0:aa,
14:um_1:flight/aa,
6:u0:459,
11:um_1:aa/459,
9:u0:depart,
15:um_1:459/depart,
16:um_1:flights/for,
25:um_1:for/american-airline,
26:um_1:american-airline/from,
13:um_1:of/plane,
13:um_1:plane/is,
10:um_1:is/an,
6:u0:m80,
11:um_1:an/m80,
13:um_1:the/list,
12:um_1:list/of,
29:um_1:for/continental-airlines,
20:um_1:for/continental,
24:um_1:continental/between,
15:um_1:and/boston,
17:um_1:which/flight,
20:um_1:airportCity/has,
13:um_1:does/any,
16:um_1:any/airline,
17:um_1:airline/have,
6:u0:jet,
10:um_1:a/jet,
15:um_1:jet/flight,
11:um_1:a/list,
13:um_1:list/for,
28:um_1:united-airlines/between,
7:u0:only,
12:um_1:me/only,
13:um_1:only/the,
15:um_1:the/united,
13:um_1:_x-1/now,
13:um_1:now/list,
17:um_1:flights/that,
8:u0:today,
16:um_1:early/today,
10:u0:classes,
19:um_1:flight/classes,
16:um_1:classes/for,
23:um_1:for/delta-airlines,
12:um_1:is/fare,
7:u0:code,
14:um_1:fare/code,
4:u0:c,
11:um_1:code/c,
7:u0:many,
13:um_1:how/many,
10:u0:booking,
17:um_1:many/booking,
20:um_1:booking/classes,
16:um_1:classes/are,
18:um_1:many/airlines,
17:um_1:have/flights,
17:um_1:flights/with,
17:um_1:with/service,
18:um_1:service/class,
5:u0:yn,
13:um_1:class/yn,
7:u0:next,
21:um_1:airportCity/next,
18:um_1:next/daysName,
22:um_1:daysName/arriving,
22:um_1:fort-worth/before,
23:um_1:leaving/fort-worth,
19:um_1:fort-worth/and,
16:u0:no-later-than,
30:um_1:airportCity/no-later-than,
6:u0:2pm,
22:um_1:no-later-than/2pm,
13:um_1:2pm/next,
14:u0:restriction,
19:um_1:is/restriction,
7:u0:ap57,
21:um_1:restriction/ap57,
13:um_1:list/the,
6:u0:via,
20:um_1:airportCity/via,
15:um_1:via/dallas,
15:um_1:which/have,
10:u0:layover,
14:um_1:a/layover,
15:um_1:layover/in,
16:um_1:airline/can,
12:um_1:can/fly,
11:um_1:fly/me,
14:um_1:much/does,
12:um_1:it/cost,
12:um_1:cost/to,
9:u0:thrift,
15:um_1:the/thrift,
19:um_1:thrift/economy,
19:um_1:economy/flight,
16:um_1:the/economy,
19:um_1:economy/thrift,
16:um_1:thrift/fare,
23:um_1:dallas/first-class,
21:um_1:earliest/morning,
19:um_1:morning/flight,
15:um_1:boston/for,
17:u0:late-afternoon,
21:um_1:a/late-afternoon,
26:um_1:late-afternoon/flight,
9:u0:what's,
16:um_1:_x-1/what's,
15:um_1:what's/the,
17:um_1:flight/after,
6:u0:1pm,
14:um_1:after/1pm,
16:um_1:1pm/leaving,
24:um_1:most/business-class,
27:um_1:business-class/flights,
15:um_1:any/us-air,
19:um_1:us-air/flights,
16:um_1:there/delta,
18:um_1:delta/flights,
15:um_1:many/delta,
15:um_1:flights/go,
10:um_1:can/i,
10:um_1:i/get,
10:um_1:get/a,
13:u0:rental-car,
17:um_1:a/rental-car,
18:um_1:rental-car/in,
17:um_1:at/9-o'clock,
23:um_1:9-o'clock/daysName,
19:um_1:daysName/night,
11:um_1:that/i,
19:um_1:latest/flights,
17:um_1:many/flights,
35:um_1:least-expensive/business-class,
26:um_1:business-class/flight,
17:u0:most-expensive,
23:um_1:the/most-expensive,
31:um_1:most-expensive/first-class,
10:u0:tickets,
24:um_1:first-class/tickets,
20:um_1:tickets/between,
15:um_1:and/dallas,
12:um_1:are/all,
11:um_1:all/of,
17:um_1:flights/into,
13:um_1:into/and,
12:um_1:and/out,
12:u0:atlanta's,
17:um_1:of/atlanta's,
22:um_1:atlanta's/airport,
12:um_1:all/the,
19:um_1:into/atlanta's,
15:um_1:fare/going,
19:um_1:boston/one-way,
15:um_1:one-way/on,
24:um_1:airportCity/one-way,
15:um_1:seventh/at,
7:u0:noon,
12:um_1:at/noon,
12:um_1:long/is,
12:um_1:noon/on,
21:um_1:flight/departing,
15:um_1:seventh/in,
26:um_1:departing/airportCity,
9:u0:eighth,
22:um_1:monthsName/eighth,
21:um_1:latest/afternoon,
21:um_1:afternoon/flight,
8:u0:ninth,
21:um_1:monthsName/ninth,
11:u0:smallest,
17:um_1:the/smallest,
19:um_1:smallest/plane,
18:um_1:plane/leaving,
18:um_1:latest/us-air,
18:um_1:us-air/flight,
17:um_1:returning/to,
29:um_1:earliest/united-airlines,
27:um_1:united-airlines/flight,
18:um_1:flight/flying,
16:um_1:arriving/on,
25:um_1:what/united-airlines,
32:um_1:united-airlines/first-class,
24:um_1:first-class/airfare,
20:um_1:airfare/flights,
8:u0:three,
21:um_1:monthsName/three,
19:um_1:is/lowest-cost,
20:um_1:lowest-cost/air,
13:um_1:air/fare,
19:um_1:fare/available,
18:um_1:available/for,
14:um_1:and/leave,
16:um_1:leave/after,
12:u0:1-o'clock,
20:um_1:after/1-o'clock,
16:um_1:which/delta,
19:um_1:flights/depart,
16:um_1:depart/from,
10:u0:heading,
24:um_1:airportCity/heading,
9:u0:toward,
19:um_1:heading/toward,
18:um_1:toward/boston,
17:um_1:boston/after,
18:um_1:after/12-noon,
16:um_1:flights/fly,
15:um_1:what/delta,
17:um_1:available/to,
17:um_1:list/flights,
17:um_1:flights/does,
7:u0:each,
14:um_1:does/each,
17:um_1:each/airline,
14:um_1:have/with,
24:um_1:with/business-class,
27:um_1:business-class/service,
15:um_1:the/direct,
19:um_1:united/leaving,
24:um_1:the/united-airlines,
28:um_1:united-airlines/flights,
19:um_1:leaving/dallas,
15:um_1:the/us-air,
14:um_1:of/ground,
15:um_1:me/flights,
15:u0:twenty-sixth,
28:um_1:monthsName/twenty-sixth,
24:um_1:twenty-sixth/please,
7:u0:name,
13:um_1:the/name,
12:um_1:name/of,
21:um_1:_x-1/airportCity,
11:u0:one-stop,
18:um_1:with/one-stop,
16:um_1:one-stop/in,
18:um_1:dallas/please,
20:um_1:dallas/arriving,
20:um_1:arriving/before,
4:u0:1,
13:um_1:before/1,
9:um_1:1/in,
16:um_1:_x-1/dallas,
4:u0:4,
12:um_1:after/4,
9:um_1:4/in,
21:um_1:afternoon/please,
16:um_1:flights/has,
20:um_1:has/continental,
21:um_1:continental/from,
17:um_1:_x-1/flights,
15:um_1:_x-1/delta,
15:um_1:flights/to,
16:um_1:many/united,
15:um_1:does/delta,
15:um_1:delta/have,
23:um_1:an/early-afternoon,
27:um_1:early-afternoon/flight,
17:um_1:an/afternoon,
17:um_1:the/airlines,
18:um_1:airlines/that,
17:um_1:have/nonstop,
22:um_1:nonstop/afternoon,
22:um_1:afternoon/flights,
28:um_1:nonstop/early-afternoon,
28:um_1:early-afternoon/flights,
12:um_1:the/two,
26:um_1:two/american-airlines,
30:um_1:american-airlines/flights,
15:um_1:that/leave,
17:um_1:delta/leaves,
18:um_1:leaves/boston,
13:um_1:and/stop,
12:um_1:much/is,
21:um_1:many/first-class,
24:um_1:does/delta-airlines,
24:um_1:delta-airlines/have,
12:um_1:a/class,
13:um_1:class/of,
15:um_1:of/service,
17:um_1:service/code,
4:u0:f,
11:um_1:code/f,
13:um_1:does/twa,
13:um_1:twa/have,
16:um_1:the/classes,
15:um_1:classes/of,
15:um_1:service/on,
12:u0:lufthansa,
17:um_1:on/lufthansa,
18:um_1:from/downtown,
16:um_1:downtown/to,
16:u0:logan-airport,
21:um_1:to/logan-airport,
21:u0:pittsburgh-airport,
27:um_1:the/pittsburgh-airport,
26:um_1:pittsburgh-airport/to,
11:um_1:to/the,
7:u0:town,
13:um_1:the/town,
8:u0:eight,
21:um_1:monthsName/eight,
12:u0:limousine,
18:um_1:the/limousine,
22:um_1:limousine/service,
17:um_1:service/cost,
9:u0:within,
16:um_1:cost/within,
23:um_1:within/airportCity,
14:um_1:what/does,
5:u0:s-,
12:um_1:does/s-,
12:u0:designate,
17:um_1:s-/designate,
17:um_1:designate/as,
9:um_1:as/a,
7:u0:meal,
11:um_1:a/meal,
10:u0:usa-air,
15:um_1:on/usa-air,
16:um_1:usa-air/how,
22:um_1:twenty-seventh/to,
19:um_1:boston/nonstop,
17:um_1:ticket/going,
18:um_1:a/first-class,
23:um_1:first-class/ticket,
17:um_1:seventh/what,
22:um_1:round-trip/ticket,
21:um_1:ticket/traveling,
26:um_1:traveling/first-class,
28:um_1:united-airlines/leaving,
10:u0:seating,
16:um_1:the/seating,
11:u0:capacity,
21:um_1:seating/capacity,
16:um_1:capacity/of,
10:u0:various,
16:um_1:the/various,
12:u0:airplanes,
22:um_1:various/airplanes,
19:um_1:airplanes/that,
25:um_1:that/united-airlines,
7:u0:uses,
25:um_1:united-airlines/uses,
16:um_1:any/nonstop,
20:um_1:nonstop/flights,
17:um_1:seventh/with,
6:u0:who,
13:um_1:with/who,
24:um_1:who/united-airlines,
15:um_1:the/number,
14:um_1:number/of,
6:u0:9am,
15:um_1:before/9am,
11:um_1:9am/in,
21:um_1:flights/arriving,
20:u0:baltimore-airport,
26:um_1:the/baltimore-airport,
16:um_1:before/noon,
16:um_1:boston/from,
23:um_1:the/boston-airport,
16:um_1:please/show,
11:um_1:me/any,
15:um_1:any/united,
12:u0:including,
22:um_1:flights/including,
26:um_1:including/connections,
9:um_1:at/5,
17:um_1:like/flights,
9:u0:eleven,
22:um_1:monthsName/eleven,
21:um_1:eleven/departing,
17:um_1:departing/at,
11:um_1:at/one,
11:um_1:one/in,
10:u0:any-day,
15:um_1:on/any-day,
15:um_1:any-day/at,
14:um_1:the/coach,
15:um_1:coach/fare,
15:um_1:airport/at,
20:um_1:service/between,
12:u0:operating,
26:um_1:airportCity/operating,
17:um_1:operating/on,
10:u0:sundays,
15:um_1:on/sundays,
15:u0:reservations,
22:um_1:make/reservations,
22:um_1:reservations/from,
31:um_1:airportCity/business-class,
27:um_1:business-class/one-way,
9:um_1:is/a,
13:um_1:a/us-air,
18:um_1:us-air/boston,
22:um_1:airportCity/daily,
18:um_1:daily/nonstop,
8:u0:price,
14:um_1:the/price,
13:um_1:price/of,
9:u0:prices,
15:um_1:the/prices,
14:um_1:prices/of,
18:u0:flight-schedule,
24:um_1:the/flight-schedule,
23:um_1:flight-schedule/of,
6:u0:f28,
12:um_1:the/f28,
13:um_1:f28/from,
5:u0:pm,
12:um_1:what/pm,
15:um_1:pm/flights,
13:um_1:_x-1/the,
15:um_1:please/and,
14:um_1:meal/with,
14:um_1:with/that,
12:um_1:need/an,
19:um_1:like/breakfast,
9:u0:served,
21:um_1:breakfast/served,
14:um_1:served/on,
12:um_1:what/do,
15:um_1:have/going,
10:u0:serving,
24:um_1:airportCity/serving,
22:um_1:serving/breakfast,
18:um_1:boston/please,
16:um_1:please/with,
12:um_1:like/an,
17:um_1:arriving/i'd,
6:u0:say,
12:um_1:i'd/say,
14:um_1:say/about,
11:u0:mealtime,
19:um_1:about/mealtime,
15:um_1:leaving/in,
18:um_1:afternoon/and,
18:um_1:evening/thank,
19:um_1:_x-1/afternoon,
16:um_1:please/that,
13:um_1:leave/in,
18:um_1:afternoon/any,
13:um_1:any/time,
16:um_1:time/please,
19:um_1:of/first-class,
8:u0:seats,
22:um_1:first-class/seats,
15:um_1:seats/from,
12:um_1:can/get,
8:u0:other,
14:um_1:any/other,
17:um_1:other/cities,
16:um_1:cities/that,
19:um_1:dallas/through,
17:um_1:through/that,
10:u0:earlier,
19:um_1:flight/earlier,
7:u0:than,
17:um_1:earlier/than,
7:u0:1017,
14:um_1:than/1017,
12:um_1:1017/in,
22:um_1:available/between,
6:u0:630,
11:um_1:at/630,
16:um_1:are/between,
17:um_1:what/nonstop,
22:um_1:airportCity/leave,
22:um_1:airportCity/after,
15:u0:6-o'clock-pm,
23:um_1:after/6-o'clock-pm,
18:um_1:there/between,
11:um_1:dc/and,
14:um_1:after/6pm,
11:um_1:6pm/on,
11:u0:provided,
17:um_1:are/provided,
16:um_1:provided/by,
25:um_1:by/american-airlines,
16:um_1:many/cities,
15:um_1:cities/are,
15:um_1:are/served,
14:um_1:served/by,
24:um_1:by/american-airline,
26:um_1:american-airline/with,
21:um_1:with/first-class,
19:um_1:by/continental,
21:um_1:continental/with,
17:um_1:by/lufthansa,
19:um_1:lufthansa/with,
22:um_1:by/delta-airlines,
14:um_1:fares/for,
6:u0:dfw,
12:um_1:and/dfw,
17:um_1:dfw/provided,
25:um_1:does/united-airlines,
24:um_1:united-airlines/fly,
11:u0:airplane,
18:um_1:what/airplane,
8:u0:types,
19:um_1:airplane/types,
14:um_1:types/fly,
12:u0:6-o'clock,
21:um_1:before/6-o'clock,
23:um_1:6-o'clock/daysName,
23:um_1:daysName/afternoon,
26:um_1:airportCity/returning,
14:um_1:after/say,
18:um_1:say/6-o'clock,
17:um_1:6-o'clock/at,
13:um_1:at/night,
24:um_1:airportCity/arrives,
21:um_1:arrives/earliest,
16:um_1:earliest/in,
11:um_1:how/do,
9:um_1:do/i,
28:um_1:from/pittsburgh-airport,
11:um_1:i/have,
18:um_1:flights/going,
21:um_1:the/twenty-ninth,
20:um_1:twenty-ninth/of,
15:um_1:united/for,
22:um_1:flights/available,
16:um_1:third/which,
21:um_1:flight/available,
10:um_1:to/dc,
10:um_1:dc/on,
28:um_1:monthsName/twenty-first,
17:um_1:airline/that,
11:u0:services,
18:um_1:that/services,
20:um_1:services/boston,
14:um_1:boston/dc,
12:u0:different,
18:um_1:the/different,
22:um_1:different/classes,
17:um_1:classes/that,
12:um_1:that/an,
9:u0:offers,
19:um_1:airline/offers,
11:um_1:do/the,
8:u0:still,
19:um_1:airlines/still,
8:u0:offer,
16:um_1:still/offer,
22:um_1:offer/first-class,
6:u0:way,
24:um_1:least-expensive/way,
11:um_1:way/to,
14:um_1:all/fares,
18:um_1:fares/between,
13:um_1:that/are,
7:u0:less,
13:um_1:are/less,
14:um_1:less/than,
14:u0:200-dollars,
21:um_1:than/200-dollars,
24:um_1:200-dollars/one-way,
14:um_1:to/arrive,
14:um_1:flight/of,
11:um_1:day/to,
15:um_1:for/boston,
18:um_1:of/round-trip,
23:um_1:ticket/first-class,
24:um_1:first-class/between,
10:u0:qx-fare,
16:um_1:the/qx-fare,
20:um_1:qx-fare/flights,
15:u0:lowest-price,
21:um_1:the/lowest-price,
22:um_1:lowest-price/fare,
17:um_1:flight/delta,
5:u0:82,
13:um_1:delta/82,
11:um_1:82/and,
14:um_1:and/delta,
6:u0:139,
14:um_1:delta/139,
19:um_1:available/with,
10:u0:q-fares,
17:um_1:with/q-fares,
17:um_1:q-fares/from,
28:um_1:least-expensive/one-way,
10:u0:carries,
24:um_1:airportCity/carries,
16:um_1:carries/the,
20:um_1:smallest/number,
13:u0:passengers,
18:um_1:of/passengers,
22:um_1:twenty-fifth/1991,
21:um_1:what/first-class,
13:um_1:which/of,
17:um_1:1991/carries,
19:um_1:flights/direct,
15:um_1:direct/and,
13:u0:connecting,
19:um_1:and/connecting,
20:um_1:connecting/from,
16:um_1:that/arrive,
7:u0:both,
21:um_1:airportCity/both,
16:um_1:both/direct,
20:um_1:connecting/that,
18:um_1:arrive/before,
17:um_1:flights/both,
9:u0:either,
14:um_1:to/either,
23:um_1:either/airportCity,
19:um_1:airportCity/or,
19:um_1:or/airportCity,
16:um_1:that/depart,
17:um_1:depart/after,
15:um_1:and/either,
19:um_1:depart/between,
14:um_1:between/5,
10:um_1:5/and,
12:um_1:and/7pm,
15:um_1:all/direct,
21:um_1:boston/departing,
21:um_1:departing/before,
16:um_1:flights/can,
11:um_1:i/find,
14:um_1:find/from,
14:um_1:after/9am,
20:um_1:many/passengers,
19:um_1:passengers/can,
10:um_1:can/a,
9:u0:boeing,
13:um_1:a/boeing,
6:u0:737,
15:um_1:boeing/737,
7:u0:hold,
13:um_1:737/hold,
23:um_1:airportCity/dallas,
21:um_1:airportCity/into,
21:um_1:into/airportCity,
20:um_1:arrives/between,
4:u0:6,
14:um_1:between/6,
10:um_1:6/and,
14:um_1:fare/that,
16:um_1:get/between,
14:um_1:_x-1/tell,
22:um_1:transportation/at,
6:u0:bwi,
13:um_1:from/bwi,
11:um_1:bwi/to,
22:um_1:lowest/round-trip,
17:um_1:the/capacity,
10:um_1:of/an,
11:um_1:an/f28,
6:u0:733,
10:um_1:a/733,
15:um_1:many/seats,
13:um_1:seats/in,
6:u0:100,
10:um_1:a/100,
11:um_1:a/fare,
12:um_1:fare/of,
14:u0:415-dollars,
19:um_1:of/415-dollars,
11:um_1:to/bwi,
23:um_1:most-expensive/way,
10:um_1:way/i,
16:um_1:fly/one-way,
17:um_1:one-way/from,
28:um_1:airportCity/first-class,
17:um_1:dallas/going,
13:um_1:going/on,
19:um_1:flights/flying,
15:um_1:flying/out,
14:um_1:of/dallas,
27:um_1:american-airlines/have,
25:um_1:fly/eastern-airlines,
20:um_1:one-way/between,
17:um_1:the/schedule,
17:um_1:what/economy,
14:u0:seventeenth,
27:um_1:monthsName/seventeenth,
17:um_1:downtown/and,
12:um_1:and/how,
17:um_1:american/and,
13:um_1:delta/to,
11:um_1:to/dfw,
11:um_1:dfw/on,
12:u0:fifteenth,
25:um_1:monthsName/fifteenth,
11:um_1:know/a,
11:um_1:get/to,
25:um_1:airportCity/downtown,
18:um_1:downtown/from,
13:um_1:show/all,
21:um_1:leaving/daysName,
16:um_1:all/nonstop,
18:um_1:airlines/with,
17:um_1:with/flights,
15:um_1:in/flights,
17:um_1:which/cities,
16:um_1:cities/does,
28:um_1:united-airlines/service,
15:um_1:what/types,
13:um_1:types/of,
23:um_1:transportation/are,
22:um_1:a/united-airlines,
20:um_1:there/limousine,
22:um_1:service/available,
25:um_1:at/baltimore-airport,
21:um_1:daysName/flights,
17:um_1:capacity/for,
15:um_1:go/between,
22:um_1:airportCity/early,
8:u0:logan,
18:um_1:between/logan,
14:um_1:logan/and,
12:um_1:and/bwi,
16:um_1:and/arrives,
15:um_1:evening/in,
12:um_1:want/an,
21:um_1:an/early-morning,
25:um_1:early-morning/flight,
23:u0:philadelphia-airport,
30:um_1:from/philadelphia-airport,
28:um_1:philadelphia-airport/to,
11:u0:distance,
17:um_1:the/distance,
21:um_1:distance/between,
31:um_1:between/pittsburgh-airport,
27:um_1:pittsburgh-airport/and,
12:u0:companies,
20:um_1:which/companies,
18:um_1:companies/fly,
22:um_1:airportCity/using,
28:um_1:using/american-airlines,
17:um_1:boston/using,
27:um_1:using/american-airline,
18:um_1:list/possible,
24:um_1:possible/round-trip,
21:um_1:round-trip/daily,
25:um_1:using/delta-airlines,
16:um_1:and/between,
15:um_1:list/daily,
14:um_1:using/twa,
26:um_1:using/united-airlines,
31:um_1:using/continental-airlines,
15:um_1:flights/of,
22:um_1:of/united-airline,
24:um_1:united-airline/from,
24:um_1:first-class/service,
25:um_1:list/least-expensive,
21:um_1:list/lowest-cost,
23:um_1:lowest-cost/flight,
13:um_1:serves/a,
15:um_1:list/types,
9:u0:planes,
14:um_1:of/planes,
16:um_1:planes/that,
13:um_1:that/fly,
16:um_1:list/number,
9:u0:people,
14:um_1:of/people,
16:um_1:people/that,
13:um_1:that/can,
11:um_1:can/be,
10:u0:carried,
15:um_1:be/carried,
15:um_1:carried/on,
12:um_1:on/each,
14:um_1:each/type,
15:um_1:plane/that,
11:u0:shortest,
17:um_1:the/shortest,
18:um_1:shortest/trip,
17:um_1:trip/between,
23:um_1:first-class/flight,
21:um_1:monthsName/first,
19:um_1:monthsName/one,
13:um_1:the/next,
18:um_1:next/smallest,
16:um_1:plane/after,
12:um_1:after/a,
12:u0:turboprop,
16:um_1:a/turboprop,
7:u0:back,
13:um_1:and/back,
8:u0:total,
14:um_1:the/total,
17:um_1:total/number,
11:um_1:to/all,
11:u0:airports,
17:um_1:all/airports,
16:um_1:airports/by,
13:um_1:by/delta,
14:um_1:all/delta,
13:u0:everywhere,
18:um_1:to/everywhere,
18:um_1:everywhere/if,
12:um_1:you/can,
26:um_1:airportCity/afternoon,
11:um_1:how/to,
6:u0:far,
12:um_1:how/far,
11:um_1:far/is,
17:um_1:airport/from,
4:u0:3,
12:um_1:after/3,
9:um_1:3/in,
18:um_1:leave/between,
17:um_1:between/noon,
13:um_1:noon/and,
18:um_1:and/5-o'clock,
23:um_1:the/delta-airlines,
27:um_1:delta-airlines/flights,
13:um_1:fares/of,
14:um_1:of/us-air,
26:um_1:early-morning/flights,
19:um_1:cheapest/coach,
17:um_1:coach/flight,
23:um_1:leaving/monthsName,
6:u0:767,
15:um_1:boeing/767,
13:um_1:bwi/that,
8:u0:lunch,
17:um_1:serves/lunch,
8:u0:snack,
12:um_1:a/snack,
20:um_1:morning/between,
20:um_1:available/after,
6:u0:3pm,
14:um_1:after/3pm,
16:um_1:3pm/between,
18:um_1:the/available,
21:um_1:available/ground,
13:um_1:delta/in,
11:um_1:in/and,
12:um_1:find/me,
16:um_1:are/nonstop,
20:um_1:nonstop/between,
5:u0:12,
15:um_1:between/12,
11:um_1:12/and,
4:u0:2,
10:um_1:and/2,
9:um_1:2/in,
13:um_1:sixth/in,
15:um_1:much/would,
13:u0:car-rental,
21:um_1:would/car-rental,
20:um_1:car-rental/cost,
12:um_1:cost/in,
16:um_1:seventh/and,
24:um_1:colorado/monthsName,
20:um_1:seventh/leaving,
9:u0:coming,
17:um_1:ninth/coming,
16:um_1:coming/back,
12:um_1:back/to,
16:um_1:airlines/go,
16:um_1:many/people,
6:u0:fit,
15:um_1:people/fit,
11:um_1:fit/on,
6:u0:72s,
10:um_1:a/72s,
17:um_1:72s/airplane,
24:um_1:airportCity/between,
10:um_1:and/4,
19:um_1:passengers/fit,
6:u0:d9s,
10:um_1:a/d9s,
16:um_1:morning/and,
12:u0:expensive,
18:um_1:how/expensive,
17:um_1:expensive/is,
20:um_1:the/airportCity,
26:um_1:airportCity/limousine,
17:um_1:of/airplanes,
18:um_1:airplanes/are,
13:um_1:are/used,
12:um_1:used/by,
26:um_1:delta-airlines/flying,
19:um_1:flying/between,
8:u0:kinds,
15:um_1:what/kinds,
13:um_1:kinds/of,
15:um_1:planes/are,
18:u0:midway-airlines,
23:um_1:by/midway-airlines,
16:um_1:what/planes,
16:um_1:planes/does,
16:um_1:does/united,
15:um_1:united/use,
18:um_1:me/round-trip,
23:um_1:round-trip/flights,
15:um_1:that/offer,
16:um_1:united/that,
13:um_1:on/eight,
18:um_1:eight/sixteen,
13:um_1:there/on,
15:um_1:evening/or,
16:um_1:or/daysName,
6:u0:sfo,
11:um_1:to/sfo,
17:um_1:have/between,
11:um_1:fare/i,
20:um_1:after/5-o'clock,
17:um_1:dallas/after,
12:um_1:after/5,
11:um_1:on/all,
15:um_1:what/would,
12:um_1:be/cost,
20:um_1:round-trip/from,
23:um_1:available/daysName,
19:um_1:afternoon/from,
12:um_1:now/i'd,
15:um_1:a/schedule,
17:um_1:schedule/for,
5:u0:no,
19:um_1:airportCity/no,
12:um_1:no/from,
15:u0:abbreviation,
21:um_1:the/abbreviation,
5:u0:co,
20:um_1:abbreviation/co,
7:u0:mean,
12:um_1:co/mean,
14:um_1:_x-1/i'll,
14:um_1:i'll/need,
18:um_1:rental-car/at,
24:um_1:atlanta-airport/can,
13:um_1:you/show,
14:um_1:me/what's,
21:um_1:what's/available,
16:um_1:need/ground,
14:um_1:does/fare,
4:u0:y,
11:um_1:code/y,
11:um_1:y/mean,
21:um_1:me/early-morning,
19:um_1:daysName/after,
13:u0:1300-hours,
21:um_1:after/1300-hours,
19:um_1:me/continental,
18:um_1:morning/after,
14:um_1:after/8am,
20:um_1:morning/serving,
13:u0:1700-hours,
21:um_1:after/1700-hours,
18:um_1:1700-hours/on,
8:u0:under,
14:um_1:for/under,
14:u0:500-dollars,
22:um_1:under/500-dollars,
23:um_1:500-dollars/please,
11:u0:airfares,
17:um_1:the/airfares,
21:um_1:airfares/between,
16:um_1:10am/boston,
23:um_1:boston/airportCity,
17:um_1:_x-1/morning,
20:um_1:arriving/boston,
21:um_1:boston/afternoon,
11:um_1:are/my,
12:um_1:my/meal,
10:u0:options,
17:um_1:meal/options,
17:um_1:options/from,
15:um_1:me/evening,
25:um_1:airportCity/daysName,
16:um_1:list/ground,
12:um_1:_x-1/am,
15:um_1:am/flights,
11:um_1:all/am,
12:um_1:list/am,
23:um_1:airportCity/boston,
12:um_1:list/pm,
16:u0:twenty-eighth,
29:um_1:monthsName/twenty-eighth,
23:um_1:twenty-eighth/1991,
10:u0:display,
17:um_1:_x-1/display,
16:um_1:display/all,
16:um_1:show/prices,
15:um_1:prices/for,
12:um_1:for/all,
13:um_1:and/also,
13:um_1:also/the,
20:um_1:see/information,
7:u0:12pm,
15:um_1:after/12pm,
12:um_1:12pm/to,
11:um_1:i/like,
12:um_1:see/the,
20:um_1:the/information,
20:um_1:dallas/daysName,
16:um_1:me/daysName,
15:um_1:airline/is,
5:u0:dl,
10:um_1:is/dl,
5:u0:98,
10:um_1:dl/98,
16:um_1:me/airlines,
15:um_1:me/airfare,
14:um_1:of/flight,
5:u0:us,
14:um_1:flight/us,
6:u0:345,
11:um_1:us/345,
13:um_1:345/from,
16:um_1:airports/in,
5:u0:ua,
14:um_1:flight/ua,
6:u0:201,
11:um_1:ua/201,
13:um_1:201/from,
15:um_1:and/flight,
6:u0:343,
11:um_1:ua/343,
13:um_1:343/from,
17:um_1:is/breakfast,
28:um_1:airportCity/coach-class,
14:um_1:flight/dl,
6:u0:323,
11:um_1:dl/323,
11:um_1:323/dl,
6:u0:229,
11:um_1:dl/229,
13:um_1:229/from,
16:um_1:boston/stop,
21:um_1:stop/airportCity,
18:um_1:on/round-trip,
17:um_1:_x-1/evening,
10:u0:meaning,
16:um_1:the/meaning,
15:um_1:meaning/of,
12:um_1:of/fare,
5:u0:qx,
12:um_1:code/qx,
11:um_1:qx/and,
5:u0:qw,
11:um_1:and/qw,
10:u0:weekday,
18:um_1:early/weekday,
20:um_1:weekday/flights,
19:um_1:what/afternoon,
13:um_1:when/can,
15:um_1:a/daysName,
8:u0:costs,
14:um_1:the/costs,
13:um_1:costs/of,
20:um_1:boston/tomorrow,
20:um_1:dallas/tomorrow,
25:u0:the-day-after-tomorrow,
31:um_1:for/the-day-after-tomorrow,
31:um_1:transportation/airportCity,
26:um_1:transportation/dallas,
16:um_1:_x-1/boston,
12:um_1:_x-1/in,
14:um_1:in/flight,
16:um_1:flight/meal,
21:um_1:meal/airportCity,
20:um_1:boston/daysName,
17:um_1:need/flights,
17:um_1:afternoon/on,
16:um_1:evening/and,
16:um_1:for/any-day,
19:um_1:boston/flights,
13:um_1:leave/on,
18:um_1:all/afternoon,
13:um_1:show/any,
16:um_1:daysName/of,
12:um_1:of/next,
14:um_1:next/week,
22:um_1:to/denver-airport,
24:um_1:denver-airport/next,
14:u0:car-rentals,
21:um_1:what/car-rentals,
20:um_1:car-rentals/are,
19:um_1:available/next,
18:um_1:daysName/from,
24:um_1:from/denver-airport,
6:u0:d-s,
13:um_1:does/d-s,
8:u0:stand,
14:um_1:d-s/stand,
14:um_1:stand/for,
12:um_1:for/for,
8:u0:meals,
14:um_1:for/meals,
22:um_1:airportCity/today,
23:um_1:available/tomorrow,
18:um_1:tomorrow/from,
6:u0:106,
11:um_1:dl/106,
13:um_1:106/from,
19:um_1:list/available,
22:um_1:available/flights,
13:um_1:for/next,
18:um_1:all/available,
18:um_1:california/to,
13:um_1:list/any,
25:um_1:cheapest/first-class,
13:um_1:night/or,
13:um_1:me/times,
14:um_1:times/for,
15:um_1:what/stops,
15:um_1:stops/does,
12:um_1:does/dl,
6:u0:838,
11:um_1:dl/838,
13:um_1:838/make,
14:um_1:make/from,
14:u0:reservation,
18:um_1:a/reservation,
20:um_1:reservation/for,
14:um_1:flight/to,
16:um_1:this/coming,
20:um_1:coming/daysName,
12:um_1:me/some,
9:u0:making,
14:um_1:on/making,
13:um_1:making/a,
21:um_1:reservation/from,
21:um_1:daysName/leaving,
15:um_1:for/dallas,
18:um_1:dallas/dallas,
13:u0:requesting,
20:um_1:_x-1/requesting,
22:um_1:requesting/flight,
15:um_1:for/flight,
16:um_1:need/flight,
17:um_1:daysName/for,
15:um_1:for/ground,
19:um_1:i'm/requesting,
12:um_1:could/i,
15:um_1:flights/in,
19:um_1:in/first-class,
11:u0:starting,
25:um_1:airportCity/starting,
16:um_1:starting/at,
13:u0:afterwards,
19:um_1:and/afterwards,
19:um_1:no/airportCity,
6:u0:402,
11:um_1:dl/402,
13:um_1:402/from,
21:um_1:airportCity/cost,
6:u0:270,
11:um_1:ua/270,
13:um_1:270/from,
6:u0:297,
11:um_1:ua/297,
13:um_1:297/from,
17:um_1:all/daysName,
18:um_1:night/flights,
15:um_1:of/airline,
14:um_1:is/flight,
6:u0:281,
11:um_1:ua/281,
13:um_1:281/from,
16:um_1:of/airplane,
16:um_1:airplane/is,
16:um_1:list/united,
13:u0:wednesdays,
18:um_1:on/wednesdays,
12:u0:thursdays,
17:um_1:on/thursdays,
13:u0:fourteenth,
19:um_1:the/fourteenth,
17:um_1:flights/next,
18:um_1:which/flights,
16:um_1:a/limousine,
16:um_1:daysName/to,
17:um_1:available/on,
14:um_1:me/ground,
18:um_1:dallas/ground,
18:um_1:california/on,
11:um_1:on/any,
17:um_1:8am/daysName,
6:u0:8pm,
14:um_1:after/8pm,
17:um_1:8pm/daysName,
15:um_1:number/and,
12:um_1:and/the,
13:um_1:time/for,
32:um_1:least-expensive/first-class,
19:um_1:early/daysName,
13:um_1:on/early,
17:um_1:on/9-o'clock,
15:um_1:morning/on,
10:um_1:on/or,
10:um_1:or/by,
17:um_1:by/9-o'clock,
15:um_1:after/noon,
14:um_1:_x-1/like,
19:um_1:dallas/leaving,
12:um_1:10am/on,
14:um_1:dallas/by,
11:um_1:by/6pm,
28:um_1:least-expensive/airfare,
23:um_1:airfare/round-trip,
15:um_1:week/which,
16:um_1:which/leave,
17:um_1:leave/boston,
15:u0:2-o'clock-pm,
23:um_1:after/2-o'clock-pm,
15:um_1:leave/next,
33:um_1:leave/the-day-after-tomorrow,
33:um_1:the-day-after-tomorrow/after,
15:u0:5-o'clock-pm,
23:um_1:after/5-o'clock-pm,
19:um_1:daysName/which,
15:u0:8-o'clock-pm,
23:um_1:after/8-o'clock-pm,
15:u0:8-o'clock-am,
23:um_1:after/8-o'clock-am,
17:um_1:which/arrive,
24:um_1:before/8-o'clock-am,
20:um_1:8-o'clock-am/on,
20:um_1:daysName/before,
13:um_1:before/6,
17:um_1:boston/which,
17:um_1:leave/before,
12:um_1:all/all,
8:u0:serve,
14:um_1:and/serve,
20:um_1:serve/breakfast,
15:um_1:and/serves,
24:um_1:before/5-o'clock-pm,
21:um_1:5-o'clock-pm/and,
12:um_1:serve/a,
16:um_1:which/serve,
13:um_1:meal/and,
25:um_1:airportCity/tomorrow,
19:um_1:tomorrow/which,
18:um_1:flights/which,
17:um_1:tomorrow/and,
19:um_1:leave/tomorrow,
8:u0:where,
15:um_1:_x-1/where,
15:um_1:where/does,
40:um_1:5-o'clock-pm/the-day-after-tomorrow,
15:um_1:all/us-air,
9:u0:dinner,
17:um_1:serve/dinner,
15:um_1:daily/with,
16:u0:economy-class,
23:um_1:with/economy-class,
20:um_1:there/available,
18:um_1:daysName/with,
18:um_1:with/stopover,
12:um_1:with/in,
17:um_1:flight/meals,
16:um_1:night/after,
20:um_1:after/6-o'clock,
18:um_1:flights/again,
7:u0:ap80,
21:um_1:restriction/ap80,
13:um_1:you/know,
15:um_1:know/about,
21:um_1:about/car-rental,
18:um_1:car-rental/in,
15:um_1:what/about,
12:um_1:about/a,
17:um_1:a/car-rental,
15:um_1:of/morning,
4:u0:m,
11:um_1:code/m,
11:um_1:m/mean,
19:um_1:flights/dallas,
19:um_1:airlines/going,
13:u0:continuing,
20:um_1:then/continuing,
18:um_1:continuing/to,
14:um_1:me/us-air,
18:um_1:daysName/show,
14:um_1:about/the,
13:um_1:coach/on,
19:um_1:daysName/about,
19:um_1:morning/boston,
24:um_1:for/united-airlines,
19:um_1:daysName/going,
24:um_1:nonstop/first-class,
24:um_1:first-class/leaving,
14:um_1:_x-1/also,
14:um_1:also/show,
19:um_1:me/first-class,
8:u0:names,
14:um_1:the/names,
13:um_1:names/of,
16:um_1:of/airlines,
16:um_1:airlines/in,
28:um_1:transportation/schedule,
16:um_1:schedule/in,
17:um_1:all/arrivals,
18:um_1:arrivals/from,
13:um_1:from/any,
16:um_1:any/airport,
21:um_1:morning/arriving,
18:um_1:noon/daysName,
21:um_1:daysName/nonstop,
23:um_1:the/transportation,
24:um_1:transportation/time,
14:um_1:time/from,
10:u0:explain,
17:um_1:_x-1/explain,
24:um_1:explain/restriction,
8:u0:ap-57,
22:um_1:restriction/ap-57,
13:um_1:are/fare,
8:u0:codes,
15:um_1:fare/codes,
13:um_1:codes/qw,
11:um_1:qw/and,
11:um_1:and/qx,
19:um_1:flights/return,
16:um_1:return/from,
18:u0:departure-times,
25:um_1:list/departure-times,
25:um_1:departure-times/from,
14:um_1:which/are,
8:u0:later,
14:um_1:are/later,
15:um_1:later/than,
13:u0:10-o'clock,
20:um_1:than/10-o'clock,
19:um_1:10-o'clock/and,
16:um_1:and/earlier,
13:um_1:than/2pm,
17:um_1:explain/meal,
15:um_1:meal/codes,
7:u0:sd-d,
15:um_1:codes/sd-d,
22:um_1:information/about,
17:um_1:dallas/which,
13:um_1:which/is,
9:u0:listed,
14:um_1:is/listed,
14:um_1:listed/dl,
7:u0:1055,
12:um_1:dl/1055,
12:um_1:1055/dl,
6:u0:405,
11:um_1:dl/405,
6:u0:4pm,
14:um_1:after/4pm,
20:um_1:display/flights,
17:um_1:which/depart,
16:um_1:between/2pm,
12:um_1:2pm/and,
12:um_1:and/6pm,
5:u0:ea,
10:um_1:is/ea,
11:um_1:ea/the,
21:um_1:abbreviation/for,
9:u0:second,
22:um_1:monthsName/second,
29:um_1:first-class/reservations,
16:um_1:does/ground,
7:u0:look,
24:um_1:transportation/look,
14:um_1:look/like,
12:um_1:like/in,
12:um_1:week/in,
15:um_1:week/after,
13:um_1:there/to,
24:u0:san-francisco-airport,
29:um_1:to/san-francisco-airport,
18:um_1:have/tomorrow,
21:um_1:tomorrow/morning,
13:um_1:far/from,
28:u0:dallas-fort-worth-airport,
34:um_1:the/dallas-fort-worth-airport,
33:um_1:dallas-fort-worth-airport/is,
14:um_1:is/dallas,
14:um_1:does/code,
12:um_1:code/qw,
12:um_1:qw/mean,
17:um_1:cheapest/way,
21:um_1:leaving/tomorrow,
20:um_1:the/coach-class,
22:um_1:coach-class/fares,
13:um_1:fares/on,
21:um_1:airportCity/have,
13:um_1:have/the,
23:um_1:lowest/coach-class,
19:um_1:lowest/one-way,
18:um_1:one-way/fares,
15:um_1:fares/from,
17:um_1:leaves/early,
16:um_1:second/from,
14:um_1:delta/fly,
15:um_1:fly/before,
11:um_1:8am/on,
7:u0:11am,
16:um_1:before/11am,
12:um_1:11am/on,
14:um_1:that/stop,
20:um_1:aircraft/leaves,
10:um_1:dc/at,
11:um_1:at/9am,
15:um_1:9am/during,
13:um_1:during/a,
14:um_1:a/weekday,
14:um_1:dc/before,
17:um_1:flight/going,
24:um_1:airportCity/nonstop,
12:um_1:to/have,
14:um_1:have/some,
19:um_1:leaving/before,
20:um_1:leaving/between,
6:u0:430,
16:um_1:between/430,
12:um_1:430/and,
8:u0:530pm,
14:um_1:and/530pm,
28:um_1:airportCity/airportCity,
9:u0:1145am,
18:um_1:before/1145am,
13:um_1:where/do,
15:um_1:united/and,
13:um_1:leave/at,
8:u0:838am,
13:um_1:at/838am,
16:um_1:838am/which,
18:um_1:flight/should,
13:um_1:should/i,
11:um_1:i/take,
20:um_1:via/airportCity,
15:um_1:fly/boston,
15:um_1:fly/dallas,
9:u0:thanks,
16:um_1:_x-1/thanks,
15:um_1:thanks/and,
15:um_1:and/what's,
16:um_1:flight/back,
14:um_1:back/from,
19:um_1:airline/serves,
23:um_1:serves/airportCity,
19:um_1:airlines/serve,
22:um_1:serve/airportCity,
14:um_1:should/be,
10:um_1:be/in,
8:u0:close,
17:um_1:arrive/close,
13:um_1:close/to,
11:um_1:to/5pm,
12:um_1:5pm/the,
15:um_1:be/nonstop,
7:u0:near,
18:um_1:arriving/near,
13:um_1:near/5pm,
13:um_1:book/the,
14:um_1:like/also,
12:um_1:also/to,
17:um_1:cheapest/one,
11:um_1:one/on,
15:um_1:that/serve,
15:um_1:serve/only,
19:um_1:only/breakfast,
14:um_1:_x-1/name,
13:um_1:name/the,
15:um_1:show/first,
24:um_1:flights/airportCity,
19:um_1:show/afternoon,
17:um_1:show/morning,
11:um_1:at/838,
12:um_1:838/and,
7:u0:1110,
12:um_1:at/1110,
12:um_1:1110/in,
14:um_1:is/ground,
30:um_1:the/san-francisco-airport,
30:um_1:san-francisco-airport/and,
18:um_1:boston/arrive,
15:um_1:before/5pm,
10:u0:fifteen,
23:um_1:monthsName/fifteen,
17:um_1:which/united,
21:um_1:airportCity/make,
21:um_1:make/connections,
8:u0:while,
15:um_1:_x-1/while,
14:um_1:while/i'm,
11:um_1:i'm/in,
20:um_1:round-trip/cost,
14:um_1:okay/tell,
13:um_1:what/the,
12:um_1:is/that,
19:um_1:leaves/between,
12:um_1:yes/i'm,
16:um_1:boston/with,
19:um_1:airportCity/do,
13:um_1:have/one,
11:um_1:one/of,
13:um_1:of/those,
12:um_1:sorry/i,
9:u0:wanted,
13:um_1:i/wanted,
14:um_1:wanted/to,
12:um_1:fly/twa,
11:um_1:twa/is,
17:um_1:with/layover,
18:um_1:latest/return,
18:um_1:boston/within,
15:um_1:within/the,
7:u0:same,
13:um_1:the/same,
13:um_1:same/day,
13:um_1:day/find,
12:um_1:back/in,
15:um_1:any-day/of,
13:um_1:the/week,
15:um_1:the/return,
19:um_1:return/flights,
13:um_1:_x-1/get,
11:um_1:get/me,
16:um_1:american/to,
18:um_1:daysName/next,
16:um_1:daysName/in,
20:um_1:twenty-third/an,
25:um_1:first-class/airplane,
18:um_1:airplane/goes,
14:um_1:goes/from,
14:um_1:and/stops,
14:um_1:dallas/in,
5:u0:21,
14:um_1:flight/21,
12:um_1:how/can,
9:um_1:i/go,
29:um_1:san-francisco-airport/to,
6:u0:928,
15:um_1:flight/928,
13:um_1:928/from,
16:um_1:flight/will,
8:u0:start,
15:um_1:will/start,
15:um_1:start/from,
19:um_1:will/originate,
19:um_1:originate/from,
15:um_1:i'm/flying,
11:u0:bay-area,
17:um_1:the/bay-area,
17:um_1:i'm/starting,
18:um_1:starting/from,
14:u0:originating,
23:um_1:flight/originating,
19:um_1:originating/in,
13:um_1:now/show,
18:um_1:i'm/traveling,
16:um_1:go/sometime,
19:um_1:sometime/after,
14:um_1:after/5pm,
6:u0:but,
12:um_1:5pm/but,
10:um_1:but/i,
7:u0:it's,
18:um_1:airplane/it's,
12:um_1:it's/on,
25:um_1:airportCity/sometime,
12:um_1:5pm/can,
15:um_1:that/could,
13:um_1:could/do,
12:um_1:do/that,
13:um_1:that/for,
12:um_1:that/go,
21:um_1:cheapest/flights,
15:um_1:you/please,
15:um_1:which/stop,
28:um_1:american-airlines/offer,
12:um_1:offer/a,
16:um_1:which/stops,
12:um_1:_x-1/no,
9:um_1:no/i,
19:um_1:arriving/after,
16:um_1:serve/meals,
10:um_1:i/see,
12:um_1:see/all,
13:um_1:i'd/also,
14:um_1:also/like,
10:um_1:see/a,
15:um_1:with/their,
16:um_1:their/fares,
17:um_1:list/nonstop,
19:um_1:arrive/between,
6:u0:445,
16:um_1:between/445,
12:um_1:445/and,
8:u0:515pm,
14:um_1:and/515pm,
13:um_1:for/both,
17:um_1:both/one-way,
16:um_1:one-way/and,
19:um_1:and/round-trip,
7:u0:more,
14:um_1:with/more,
14:um_1:more/than,
11:um_1:than/3,
12:um_1:3/stops,
12:um_1:with/at,
8:u0:least,
13:um_1:at/least,
12:um_1:least/3,
13:um_1:find/any,
15:um_1:any/flight,
25:um_1:airportCity/stopping,
16:um_1:stopping/in,
21:um_1:daysName/between,
12:um_1:by/noon,
13:um_1:find/all,
20:um_1:dallas/stopping,
24:um_1:airportCity/through,
24:um_1:through/airportCity,
19:um_1:through/dallas,
16:um_1:plane/flies,
20:um_1:one-way/flights,
18:um_1:morning/first,
21:u0:washington-airport,
28:um_1:from/washington-airport,
28:um_1:washington-airport/into,
18:um_1:into/downtown,
13:um_1:and/make,
19:um_1:arrives/before,
8:u0:cheap,
12:um_1:a/cheap,
15:um_1:cheap/from,
18:um_1:serves/dinner,
12:um_1:then/to,
7:u0:late,
11:um_1:a/late,
16:um_1:late/flight,
16:um_1:boston/this,
18:um_1:this/daysName,
16:um_1:fly/nonstop,
17:um_1:nonstop/from,
14:u0:inexpensive,
19:um_1:an/inexpensive,
23:um_1:inexpensive/flight,
17:um_1:cheap/flight,
12:u0:currently,
18:um_1:are/currently,
24:um_1:currently/available,
13:um_1:me/delta,
13:um_1:day/from,
27:um_1:airportCity/round-trip,
19:um_1:round-trip/and,
12:um_1:stop/at,
14:um_1:leaves/on,
8:u0:makes,
15:um_1:that/makes,
12:um_1:makes/a,
16:um_1:arriving/at,
11:um_1:at/5pm,
11:um_1:5pm/it,
7:u0:must,
12:um_1:it/must,
12:um_1:must/be,
9:um_1:be/a,
20:um_1:on/thirty-first,
20:um_1:thirty-first/of,
7:u0:just,
11:um_1:i/just,
14:um_1:just/want,
26:um_1:most-expensive/flight,
22:um_1:dallas/round-trip,
11:u0:midnight,
20:um_1:around/midnight,
19:um_1:midnight/could,
17:um_1:midnight/for,
11:um_1:do/all,
7:u0:land,
21:um_1:airportCity/land,
12:um_1:land/at,
8:u0:place,
15:um_1:same/place,
18:u0:oakland-airport,
23:um_1:is/oakland-airport,
25:um_1:oakland-airport/from,
13:um_1:_x-1/and,
12:um_1:that/at,
14:um_1:least/has,
17:um_1:has/one-stop,
21:um_1:arriving/between,
11:um_1:need/2,
18:um_1:2/first-class,
17:um_1:tickets/from,
13:um_1:and/this,
16:um_1:this/flight,
18:um_1:should/arrive,
14:um_1:arrive/at,
11:um_1:at/7pm,
15:um_1:7pm/please,
21:um_1:nonstop/arriving,
16:um_1:between/5pm,
12:um_1:5pm/and,
8:u0:730pm,
14:um_1:and/730pm,
19:u0:transcontinental,
27:um_1:which/transcontinental,
28:um_1:transcontinental/flight,
17:um_1:dallas/makes,
16:um_1:the/nonstop,
8:u0:430pm,
18:um_1:between/430pm,
14:um_1:430pm/and,
8:u0:630pm,
14:um_1:and/630pm,
16:um_1:dallas/next,
15:um_1:and/depart,
14:um_1:depart/in,
22:um_1:airportCity/could,
13:um_1:you/find,
12:um_1:do/this,
7:u0:gets,
14:um_1:that/gets,
12:um_1:gets/in,
14:um_1:in/around,
15:um_1:around/7pm,
12:um_1:and/get,
14:um_1:get/there,
13:um_1:there/at,
11:u0:connects,
19:um_1:which/connects,
16:um_1:connects/in,
18:u0:12-o'clock-noon,
27:um_1:before/12-o'clock-noon,
18:um_1:which/connect,
15:um_1:connect/in,
27:um_1:airportCity/connecting,
18:um_1:connecting/in,
28:um_1:least-expensive/flights,
14:um_1:after/2pm,
11:u0:vicinity,
17:um_1:the/vicinity,
16:um_1:vicinity/of,
11:um_1:of/5pm,
18:um_1:trip/starting,
16:um_1:starting/in,
23:um_1:dallas/airportCity,
14:um_1:much/time,
16:um_1:downtown/by,
14:um_1:by/ground,
16:um_1:dallas/with,
7:u0:over,
14:um_1:stop/over,
12:um_1:over/in,
8:u0:don't,
12:um_1:i/don't,
15:um_1:don't/want,
13:um_1:want/any,
12:u0:stopovers,
18:um_1:any/stopovers,
18:um_1:stopovers/and,
13:um_1:fly/only,
16:um_1:only/during,
15:um_1:during/the,
20:um_1:airportCity/but,
12:um_1:to/stop,
23:um_1:a/transcontinental,
22:um_1:airportCity/close,
15:um_1:nonstop/on,
6:u0:757,
15:um_1:boeing/757,
17:um_1:757/arriving,
19:um_1:fifteenth/1991,
14:um_1:1991/from,
15:um_1:first/1991,
26:um_1:the/american-airlines,
20:um_1:boston/arriving,
11:um_1:by/way,
11:um_1:way/of,
12:um_1:after/2,
16:um_1:find/travel,
24:um_1:travel/arrangements,
21:um_1:arrangements/for,
15:um_1:8pm/before,
7:u0:10pm,
16:um_1:before/10pm,
16:um_1:arriving/to,
9:u0:define,
16:um_1:_x-1/define,
19:um_1:define/airline,
15:um_1:airline/ua,
5:u0:fn,
12:um_1:code/fn,
11:um_1:5pm/on,
20:um_1:the/car-rentals,
19:um_1:car-rentals/in,
12:u0:transport,
21:um_1:ground/transport,
17:um_1:transport/in,
10:u0:listing,
14:um_1:a/listing,
15:um_1:listing/of,
17:um_1:_x-1/listing,
19:um_1:flights/please,
16:um_1:please/from,
12:u0:4-o'clock,
18:um_1:any/4-o'clock,
22:um_1:4-o'clock/flights,
6:u0:746,
11:um_1:dl/746,
13:um_1:746/cost,
5:u0:hi,
12:um_1:_x-1/hi,
9:um_1:hi/i,
14:um_1:ticket/to,
20:um_1:one-way/tickets,
23:um_1:round-trip/tickets,
22:um_1:airportCity/again,
16:um_1:show/ground,
23:um_1:transportation/for,
16:um_1:dc/daysName,
16:um_1:me/airports,
18:um_1:airports/near,
21:um_1:near/airportCity,
12:um_1:qx/mean,
13:um_1:me/fares,
23:um_1:flights/round-trip,
16:um_1:flights/and,
13:um_1:and/fare,
21:um_1:fare/information,
23:um_1:connecting/through,
18:um_1:and/1-o'clock,
17:um_1:arrive/after,
22:um_1:at/boston-airport,
18:um_1:of/rental-car,
21:um_1:rental-car/fares,
13:um_1:fares/at,
12:um_1:fare/in,
24:um_1:most-expensive/fare,
15:u0:pennsylvania,
29:um_1:airportCity/pennsylvania,
14:um_1:and/fares,
18:um_1:us-air/number,
7:u0:1039,
16:um_1:number/1039,
12:um_1:1039/on,
22:um_1:round-trip/dallas,
19:um_1:on/continental,
7:u0:1291,
21:um_1:continental/1291,
20:um_1:1291/round-trip,
27:um_1:round-trip/airportCity,
14:um_1:1291/from,
15:um_1:and/return,
15:um_1:with/fares,
13:um_1:show/the,
20:um_1:6-o'clock-pm/on,
16:um_1:dallas/from,
20:um_1:round-trip/less,
15:u0:1100-dollars,
22:um_1:than/1100-dollars,
21:um_1:round-trip/after,
14:um_1:12pm/less,
13:um_1:than/100,
18:um_1:week/arriving,
16:um_1:after/lunch,
15:um_1:which/show,
5:u0:up,
12:um_1:show/up,
10:um_1:up/on,
17:um_1:at/6-o'clock,
19:um_1:6-o'clock/next,
19:um_1:near/6-o'clock,
18:um_1:first/flights,
10:u0:mondays,
15:um_1:on/mondays,
19:um_1:fifteenth/with,
17:u0:departure-time,
24:um_1:with/departure-time,
25:um_1:departure-time/after,
12:u0:sixteenth,
25:um_1:monthsName/sixteenth,
16:um_1:fourth/1991,
19:um_1:monthsName/the,
19:um_1:me/airportCity,
19:um_1:dallas/flights,
14:um_1:me/dallas,
14:um_1:me/boston,
24:um_1:airportCity/flights,
21:um_1:_x-1/first-class,
22:um_1:first-class/fares,
15:um_1:_x-1/coach,
16:um_1:coach/fares,
16:u0:only-weekdays,
24:um_1:fares/only-weekdays,
22:um_1:only-weekdays/for,
17:um_1:explain/fare,
5:u0:ap,
19:um_1:restriction/ap,
14:um_1:ap/please,
14:um_1:on/either,
20:um_1:either/daysName,
21:um_1:the/twenty-third,
20:um_1:twenty-third/or,
16:u0:twenty-fourth,
22:um_1:the/twenty-fourth,
15:um_1:heading/to,
15:um_1:and/before,
17:um_1:9am/daysName,
17:um_1:and/daysName,
14:um_1:me/return,
10:um_1:f/and,
11:um_1:and/fn,
12:um_1:fn/mean,
21:um_1:round-trip/coach,
14:u0:rental-cars,
21:um_1:_x-1/rental-cars,
19:um_1:rental-cars/in,
11:u0:eleventh,
24:um_1:monthsName/eleventh,
15:um_1:all/prices,
16:um_1:all/economy,
19:um_1:economy/prices,
16:um_1:prices/from,
9:u0:priced,
18:um_1:lowest/priced,
16:um_1:priced/fare,
22:um_1:lowest-price/from,
14:um_1:flight/ea,
6:u0:212,
11:um_1:ea/212,
13:um_1:212/from,
16:um_1:with/prices,
14:um_1:_x-1/from,
14:um_1:okay/show,
11:u0:anywhere,
18:um_1:from/anywhere,
16:um_1:anywhere/to,
7:u0:2100,
15:um_1:after/2100,
14:um_1:that/cost,
14:um_1:cost/less,
14:u0:300-dollars,
21:um_1:than/300-dollars,
27:um_1:most-expensive/one-way,
24:um_1:one-way/first-class,
17:um_1:between/10am,
13:um_1:10am/and,
12:um_1:and/2pm,
13:um_1:at/about,
20:um_1:about/4-o'clock,
14:um_1:between/4,
10:um_1:4/and,
12:um_1:and/5pm,
14:um_1:for/delta,
6:u0:296,
15:um_1:flight/296,
13:um_1:296/from,
11:um_1:for/us,
14:um_1:us/flight,
7:u0:3357,
16:um_1:flight/3357,
14:um_1:3357/from,
18:um_1:eleventh/1991,
29:um_1:monthsName/twenty-fourth,
23:um_1:transportation/can,
14:um_1:take/into,
16:um_1:into/boston,
21:um_1:airportCity/late,
18:um_1:late/daysName,
13:um_1:or/early,
19:um_1:available/into,
16:um_1:see/flights,
19:um_1:wednesdays/and,
18:um_1:and/thursdays,
16:um_1:daysName/or,
14:um_1:for/these,
8:u0:ap-80,
22:um_1:restriction/ap-80,
15:um_1:code/again,
13:um_1:again/qx,
18:um_1:economy/fares,
14:um_1:me/prices,
15:um_1:prices/and,
14:um_1:and/times,
20:um_1:for/first-class,
23:um_1:first-class/travel,
9:u0:summer,
16:um_1:next/summer,
6:u0:non,
11:um_1:me/non,
20:um_1:non/first-class,
13:um_1:of/these,
13:um_1:early/on,
11:u0:mornings,
22:um_1:daysName/mornings,
11:um_1:is/bwi,
20:um_1:bwi/airportCity,
12:um_1:code/yn,
12:um_1:yn/mean,
13:um_1:dl/stand,
18:um_1:want/daysName,
20:um_1:available/coach,
13:um_1:coach/or,
21:um_1:or/economy-class,
23:um_1:economy-class/from,
22:um_1:are/economy-class,
17:um_1:with/economy,
18:um_1:sixteen/going,
21:um_1:me/economy-class,
26:um_1:economy-class/one-way,
19:um_1:the/rental-car,
8:u0:rates,
21:um_1:rental-car/rates,
13:um_1:rates/in,
15:um_1:me/one-way,
20:um_1:one-way/economy,
17:um_1:with/one-way,
13:um_1:_x-1/fly,
21:um_1:airportCity/less,
15:u0:1000-dollars,
22:um_1:than/1000-dollars,
12:um_1:4pm/and,
21:um_1:want/information,
9:um_1:dc/i,
19:um_1:leave/daysName,
11:um_1:4pm/or,
11:um_1:4pm/on,
14:um_1:or/before,
11:um_1:9am/on,
12:um_1:_x-1/us,
7:u0:3724,
12:um_1:us/3724,
21:um_1:3724/airportCity,
6:u0:771,
11:um_1:us/771,
20:um_1:771/airportCity,
19:u0:flight-schedules,
24:um_1:me/flight-schedules,
26:um_1:flight-schedules/from,
21:um_1:round-trip/fares,
15:um_1:_x-1/fares,
14:um_1:fares/and,
16:um_1:and/flights,
13:um_1:the/ap57,
21:um_1:ap57/restriction,
22:um_1:airportCity/where,
14:um_1:where/the,
12:um_1:fare/is,
12:um_1:is/less,
20:um_1:_x-1/round-trip,
22:um_1:airportCity/under,
23:um_1:under/1000-dollars,
28:um_1:1000-dollars/round-trip,
20:um_1:1000-dollars/or,
18:um_1:or/round-trip,
7:u0:1992,
22:um_1:twenty-first/1992,
22:um_1:twenty-third/from,
18:um_1:mornings/from,
10:u0:include,
16:um_1:and/include,
10:u0:whether,
20:um_1:include/whether,
18:um_1:whether/meals,
14:um_1:meals/are,
10:u0:offered,
16:um_1:are/offered,
16:um_1:offered/and,
15:um_1:prices/are,
12:um_1:does/us,
12:um_1:us/mean,
12:um_1:does/co,
12:um_1:does/ea,
12:um_1:ea/mean,
14:um_1:night/and,
14:u0:round-trips,
25:um_1:cheapest/round-trips,
21:um_1:round-trips/from,
5:u0:ac,
11:um_1:are/ac,
11:um_1:ac/and,
11:um_1:and/as,
10:um_1:is/as,
21:um_1:airlines/between,
21:um_1:then/airportCity,
7:u0:rent,
12:um_1:to/rent,
11:um_1:rent/a,
6:u0:car,
10:um_1:a/car,
26:um_1:airportCity/departing,
20:um_1:departing/after,
14:um_1:will/need,
11:um_1:car/at,
21:um_1:airportCity/i'll,
12:u0:milwaukee,
19:um_1:from/milwaukee,
17:um_1:milwaukee/to,
20:um_1:one-way/leaving,
10:u0:ontario,
17:um_1:from/ontario,
15:um_1:ontario/to,
16:um_1:any-day/and,
20:um_1:and/first-class,
18:um_1:coach/economy,
17:um_1:economy/fare,
15:um_1:flights/if,
16:um_1:if/possible,
27:um_1:first-class/round-trip,
13:um_1:want/the,
21:u0:southwest-airlines,
26:um_1:on/southwest-airlines,
16:um_1:explain/the,
20:um_1:the/restriction,
13:um_1:all/fare,
19:um_1:cheapest/fares,
15:um_1:before/7pm,
17:um_1:show/nonstop,
15:um_1:which/cost,
14:u0:466-dollars,
21:um_1:than/466-dollars,
24:um_1:466-dollars/one-way,
20:um_1:with/round-trip,
16:um_1:fares/under,
14:u0:932-dollars,
22:um_1:under/932-dollars,
14:um_1:fare/less,
13:um_1:and/cost,
8:u0:along,
19:um_1:daysName/along,
15:um_1:along/with,
15:um_1:fares/that,
19:um_1:all/round-trip,
16:um_1:all/one-way,
15:u0:indianapolis,
22:um_1:from/indianapolis,
20:um_1:indianapolis/to,
17:u0:st.-petersburg,
24:um_1:from/st.-petersburg,
22:um_1:st.-petersburg/to,
15:um_1:me/airline,
16:u0:abbreviations,
26:um_1:airline/abbreviations,
12:um_1:it/from,
25:u0:salt-lake-city-airport,
32:um_1:from/salt-lake-city-airport,
30:um_1:salt-lake-city-airport/to,
13:um_1:fly/into,
15:um_1:me/nonstop,
21:um_1:with/coach-class,
16:um_1:me/distance,
18:um_1:distance/from,
18:u0:orlando-airport,
25:um_1:from/orlando-airport,
23:um_1:orlando-airport/to,
24:u0:orlando-international,
34:um_1:between/orlando-international,
30:um_1:orlando-international/and,
22:um_1:between/milwaukee,
18:um_1:milwaukee/and,
15:um_1:the/cities,
27:um_1:that/american-airlines,
29:um_1:american-airlines/serves,
25:um_1:airportCity/airports,
18:um_1:_x-1/american,
7:u0:4400,
16:um_1:flight/4400,
14:um_1:4400/from,
21:um_1:american/flights,
18:um_1:_x-1/airports,
8:u0:718am,
16:um_1:after/718am,
19:um_1:718am/american,
24:um_1:airportCity/morning,
11:u0:columbus,
18:um_1:from/columbus,
16:um_1:columbus/to,
17:um_1:to/milwaukee,
21:um_1:_x-1/coach-class,
24:um_1:coach-class/flights,
11:u0:st.-paul,
16:um_1:to/st.-paul,
29:um_1:airportCity/5-o'clock-pm,
23:um_1:5-o'clock-pm/daily,
6:u0:jfk,
13:um_1:from/jfk,
11:um_1:jfk/or,
13:u0:la-guardia,
18:um_1:or/la-guardia,
18:um_1:la-guardia/to,
20:um_1:from/la-guardia,
18:um_1:la-guardia/or,
11:um_1:or/jfk,
11:um_1:jfk/to,
15:um_1:_x-1/names,
16:um_1:of/airports,
11:u0:weekdays,
16:um_1:on/weekdays,
17:um_1:_x-1/weekday,
21:u0:westchester-county,
26:um_1:to/westchester-county,
35:um_1:westchester-county/airportCity,
25:um_1:airportCity/weekdays,
26:um_1:in/westchester-county,
28:um_1:from/westchester-county,
26:um_1:westchester-county/to,
20:um_1:are/first-class,
24:um_1:business-class/fare,
18:um_1:_x-1/airlines,
14:um_1:_x-1/code,
5:u0:ff,
12:um_1:code/ff,
16:um_1:_x-1/return,
12:u0:tower-air,
17:um_1:on/tower-air,
17:um_1:tower-air/on,
12:u0:saturdays,
17:um_1:on/saturdays,
13:um_1:from/sfo,
11:um_1:sfo/to,
13:u0:long-beach,
18:um_1:to/long-beach,
11:um_1:to/jfk,
20:um_1:from/long-beach,
18:um_1:long-beach/to,
12:u0:nashville,
17:um_1:to/nashville,
13:u0:new-jersey,
27:um_1:airportCity/new-jersey,
18:um_1:new-jersey/to,
7:u0:ohio,
21:um_1:airportCity/ohio,
17:um_1:transport/is,
5:u0:hp,
10:um_1:is/hp,
17:um_1:10am/any-day,
15:um_1:is/airline,
5:u0:nw,
15:um_1:airline/nw,
13:um_1:where/is,
6:u0:mco,
11:um_1:is/mco,
15:um_1:airline/us,
13:um_1:does/mco,
14:um_1:mco/stand,
12:um_1:city/is,
16:um_1:airport/mco,
11:um_1:mco/in,
13:um_1:mco/mean,
16:um_1:are/flights,
22:um_1:to/st.-petersburg,
14:um_1:you/offer,
13:um_1:offer/me,
10:um_1:me/in,
13:um_1:and/i'll,
13:um_1:sixth/to,
16:um_1:to/daysName,
7:u0:i've,
14:um_1:okay/i've,
6:u0:got,
13:um_1:i've/got,
11:u0:somebody,
17:um_1:got/somebody,
7:u0:else,
18:um_1:somebody/else,
13:um_1:else/who,
8:u0:wants,
14:um_1:who/wants,
13:um_1:wants/to,
12:um_1:you/get,
13:u0:difference,
19:um_1:the/difference,
23:um_1:difference/between,
17:um_1:between/fare,
4:u0:q,
11:um_1:code/q,
10:um_1:q/and,
4:u0:b,
11:um_1:code/b,
10:u0:what're,
17:um_1:_x-1/what're,
16:um_1:what're/the,
21:um_1:cheapest/nonstop,
5:u0:qo,
12:um_1:code/qo,
12:um_1:qo/mean,
6:u0:ewr,
11:um_1:is/ewr,
16:um_1:_x-1/lowest,
6:u0:bur,
11:um_1:is/bur,
17:um_1:_x-1/nonstop,
15:um_1:nonstop/or,
18:um_1:or/connecting,
23:um_1:connecting/flights,
8:u0:train,
15:um_1:_x-1/train,
13:um_1:train/to,
22:um_1:fares/airportCity,
18:um_1:_x-1/cheapest,
14:um_1:need/late,
20:um_1:flight/daysName,
9:u0:laying,
18:um_1:us-air/laying,
16:um_1:laying/over,
10:um_1:in/dc,
13:u0:air-canada,
18:um_1:on/air-canada,
18:um_1:display/types,
23:um_1:aircraft/departing,
18:um_1:dallas/before,
19:um_1:from/nashville,
17:um_1:nashville/to,
27:um_1:indianapolis/nashville,
26:um_1:nashville/airportCity,
19:um_1:nashville/back,
17:um_1:_x-1/looking,
12:um_1:from/dc,
12:u0:minnesota,
17:um_1:to/minnesota,
9:u0:stands,
19:um_1:airline/stands,
15:um_1:stands/for,
11:um_1:for/hp,
14:um_1:a/evening,
17:um_1:daysName/you,
17:um_1:which/offers,
13:um_1:offers/a,
10:u0:florida,
24:um_1:airportCity/florida,
15:um_1:florida/to,
17:u0:north-carolina,
31:um_1:airportCity/north-carolina,
13:um_1:you/list,
17:um_1:in/milwaukee,
27:um_1:between/st.-petersburg,
23:um_1:st.-petersburg/and,
7:u0:soon,
16:um_1:arrive/soon,
15:um_1:soon/after,
22:um_1:of/late-afternoon,
27:um_1:late-afternoon/flights,
6:u0:ten,
13:um_1:take/ten,
15:um_1:ten/people,
16:um_1:people/from,
16:um_1:to/stopover,
10:u0:instead,
17:um_1:_x-1/instead,
15:um_1:instead/of,
16:um_1:same/flight,
17:um_1:but/stopping,
20:um_1:airportCity/are,
18:um_1:there/flights,
15:um_1:which/will,
13:um_1:will/get,
12:um_1:me/into,
11:um_1:by/5pm,
11:um_1:5pm/or,
33:u0:as-soon-thereafter-as-possible,
38:um_1:or/as-soon-thereafter-as-possible,
17:um_1:aircraft/are,
12:um_1:does/nw,
13:um_1:nw/stand,
16:um_1:the/weekday,
14:u0:meal-code-s,
19:um_1:of/meal-code-s,
16:um_1:the/airline,
17:um_1:airline/code,
12:um_1:code/dl,
20:um_1:abbreviation/us,
14:um_1:us/stands,
17:um_1:numbers/from,
18:um_1:columbus/ohio,
12:um_1:ohio/to,
26:um_1:airportCity/minnesota,
17:um_1:minnesota/on,
26:um_1:long-beach/california,
16:um_1:to/columbus,
12:um_1:ohio/on,
11:u0:listings,
18:um_1:have/listings,
16:um_1:listings/of,
9:u0:canada,
23:um_1:airportCity/canada,
19:um_1:canada/leaving,
11:u0:missouri,
25:um_1:airportCity/missouri,
16:um_1:missouri/to,
7:u0:utah,
21:um_1:airportCity/utah,
11:um_1:utah/i,
12:um_1:in/only,
15:um_1:only/those,
18:um_1:those/flights,
18:um_1:what/aircraft,
13:um_1:used/for,
7:u0:1222,
16:um_1:flight/1222,
14:um_1:1222/from,
27:um_1:st.-petersburg/florida,
21:um_1:milwaukee/please,
13:um_1:if/there,
14:um_1:there/are,
12:um_1:are/any,
13:u0:preferably,
23:um_1:leaving/preferably,
24:um_1:preferably/tomorrow,
17:um_1:departing/in,
11:um_1:what/i,
12:um_1:know/is,
12:um_1:is/does,
6:u0:505,
15:um_1:flight/505,
13:um_1:505/from,
22:um_1:airportCity/serve,
9:u0:that's,
18:um_1:dinner/that's,
15:um_1:that's/twa,
11:um_1:505/or,
6:u0:163,
11:um_1:or/163,
24:um_1:north-carolina/that,
16:um_1:that/return,
18:um_1:return/around,
13:u0:thirteenth,
26:um_1:monthsName/thirteenth,
15:um_1:eighth/i'd,
9:u0:nevada,
23:um_1:airportCity/nevada,
16:um_1:nevada/that,
17:um_1:would/arrive,
15:um_1:before/4pm,
11:u0:michigan,
25:um_1:airportCity/michigan,
18:um_1:michigan/that,
17:um_1:daysName/i'd,
24:um_1:st.-petersburg/that,
12:um_1:after/6,
9:um_1:6/in,
11:u0:actually,
15:um_1:i/actually,
18:um_1:actually/want,
14:u0:westchester,
19:um_1:to/westchester,
20:um_1:westchester/via,
17:um_1:nashville/on,
16:um_1:of/daysName,
18:um_1:dinner/what's,
23:um_1:afternoon/tomorrow,
15:um_1:fly/us-air,
13:um_1:the/late,
17:um_1:late/evening,
17:um_1:evening/what,
20:u0:milwaukee-airport,
26:um_1:the/milwaukee-airport,
25:um_1:milwaukee-airport/to,
17:um_1:the/downtown,
7:u0:area,
18:um_1:downtown/area,
16:u0:new-york-city,
21:um_1:to/new-york-city,
25:um_1:new-york-city/arrive,
16:um_1:arrive/next,
23:um_1:daysName/returning,
20:u0:the-following-day,
32:um_1:returning/the-following-day,
13:um_1:7pm/next,
20:um_1:daysName/arrive,
14:um_1:about/7pm,
21:um_1:airportCity/also,
14:um_1:also/stop,
17:um_1:_x-1/airline,
16:um_1:airline/and,
16:um_1:number/from,
18:um_1:long-beach/on,
13:u0:twenty-six,
26:um_1:monthsName/twenty-six,
16:um_1:columbus/on,
22:um_1:on/twenty-seventh,
23:um_1:from/new-york-city,
21:um_1:new-york-city/to,
17:um_1:delta/arrive,
18:um_1:arrive/around,
15:um_1:around/8pm,
17:um_1:8pm/tomorrow,
20:um_1:flight/tomorrow,
21:um_1:tomorrow/evening,
17:um_1:evening/that,
16:um_1:flight/this,
9:u0:prefer,
17:um_1:would/prefer,
13:um_1:prefer/a,
14:um_1:a/morning,
22:um_1:the/twenty-eighth,
21:um_1:flights/tomorrow,
17:um_1:list/evening,
27:um_1:list/american-airlines,
10:u0:burbank,
17:um_1:from/burbank,
15:um_1:burbank/to,
18:um_1:leaving/today,
18:um_1:today/evening,
11:u0:reaching,
25:um_1:airportCity/reaching,
25:um_1:reaching/airportCity,
15:um_1:to/burbank,
16:um_1:burbank/the,
16:um_1:be/american,
16:um_1:afternoon/i,
17:um_1:the/aircraft,
17:um_1:aircraft/and,
4:u0:7,
13:um_1:around/7,
9:um_1:7/in,
17:um_1:evening/next,
26:um_1:american-airlines/and,
14:um_1:at/around,
19:um_1:afternoon/show,
17:um_1:find/flights,
26:um_1:monthsName/fourteenth,
21:um_1:fourteenth/early,
15:um_1:morning/or,
10:um_1:or/in,
21:um_1:evening/daysName,
21:um_1:thirteenth/thank,
21:um_1:long-beach/after,
20:um_1:after/4-o'clock,
17:um_1:4-o'clock/on,
22:um_1:fourteenth/please,
15:um_1:12-noon/on,
19:um_1:fifteenth/from,
14:um_1:delta/and,
17:um_1:8-o'clock/in,
18:um_1:evening/could,
17:um_1:number/thank,
18:um_1:eleventh/from,
13:um_1:out/what,
18:um_1:flights/there,
11:um_1:are/on,
22:um_1:airportCity/thank,
24:um_1:st.-petersburg/late,
15:um_1:late/night,
13:um_1:night/on,
22:um_1:st.-petersburg/on,
24:um_1:north-carolina/next,
12:um_1:dc/that,
14:um_1:before/or,
14:um_1:or/around,
16:um_1:around/noon,
21:um_1:nashville/please,
11:um_1:hi/i'd,
20:um_1:to/indianapolis,
15:um_1:to/ontario,
23:um_1:ontario/california,
20:um_1:california/that,
17:um_1:that/connect,
14:um_1:fly/early,
19:um_1:early/tomorrow,
19:um_1:long-beach/two,
7:u0:days,
13:um_1:two/days,
14:um_1:days/from,
15:um_1:from/today,
13:um_1:today/in,
18:um_1:columbus/late,
15:um_1:now/please,
16:um_1:tomorrow/on,
17:um_1:milwaukee/on,
14:um_1:a/airline,
18:um_1:airline/other,
15:um_1:other/than,
13:um_1:than/twa,
13:um_1:and/from,
31:um_1:american-airlines/tomorrow,
21:u0:northwest-airlines,
30:um_1:latest/northwest-airlines,
30:um_1:northwest-airlines/flight,
17:um_1:afternoon/or,
13:um_1:or/leave,
21:um_1:does/restriction,
15:um_1:ap-57/mean,
20:um_1:leaves/daysName,
22:um_1:indianapolis/that,
15:um_1:burbank/on,
20:um_1:daysName/around,
13:um_1:7pm/from,
23:um_1:of/united-airlines,
6:u0:415,
15:um_1:flight/415,
13:um_1:415/from,
16:um_1:for/ontario,
21:um_1:leave/la-guardia,
19:um_1:la-guardia/for,
16:um_1:arrive/10pm,
18:um_1:daysName/what,
23:um_1:st.-paul/minnesota,
18:um_1:minnesota/and,
15:um_1:dc/nonstop,
13:um_1:next/two,
11:um_1:days/i,
10:um_1:or/to,
19:um_1:there/tomorrow,
11:um_1:i/rent,
11:um_1:car/in,
20:um_1:airportCity/too,
10:u0:arrival,
21:um_1:earliest/arrival,
15:um_1:arrival/in,
19:um_1:airportCity/of,
12:um_1:and/all,
19:um_1:twenty-sixth/i,
12:um_1:the/way,
12:um_1:like/it,
10:um_1:it/to,
5:u0:la,
12:um_1:from/la,
10:um_1:la/to,
10:um_1:to/la,
16:um_1:la/daysName,
11:um_1:and/la,
10:um_1:la/on,
15:um_1:la/leaving,
25:um_1:daysName/airportCity,
20:um_1:flight/arriving,
20:um_1:burbank/leaving,
17:um_1:leaving/this,
19:um_1:this/afternoon,
20:um_1:first-class/and,
14:um_1:and/coach,
20:um_1:arriving/around,
12:um_1:yes/i'd,
13:u0:eighteenth,
19:um_1:the/eighteenth,
18:um_1:eighteenth/of,
16:um_1:american/on,
19:um_1:the/nineteenth,
18:um_1:the/twentieth,
20:um_1:indianapolis/on,
15:um_1:twelfth/on,
15:um_1:either/twa,
14:um_1:twa/delta,
13:um_1:delta/or,
19:um_1:or/continental,
11:um_1:from/a,
15:um_1:us-air/and,
11:um_1:and/it,
15:um_1:it/arrives,
19:um_1:arrives/around,
16:um_1:around/10pm,
16:um_1:us-air/that,
22:um_1:the/twenty-second,
17:um_1:burbank/also,
12:um_1:also/on,
13:u0:twenty-two,
26:um_1:monthsName/twenty-two,
15:u0:america-west,
20:um_1:on/america-west,
20:um_1:america-west/or,
12:u0:southwest,
17:um_1:or/southwest,
18:um_1:southwest/air,
13:um_1:air/from,
18:um_1:twenty-two/on,
17:um_1:on/southwest,
6:u0:six,
19:um_1:monthsName/six,
17:um_1:six/arriving,
26:um_1:flight/delta-airlines,
31:um_1:delta-airlines/airportCity,
12:u0:salt-lake,
17:um_1:to/salt-lake,
13:um_1:have/two,
10:u0:friends,
16:um_1:two/friends,
17:um_1:friends/that,
8:u0:visit,
13:um_1:to/visit,
13:um_1:visit/me,
7:u0:here,
18:um_1:daysName/here,
12:um_1:here/in,
11:um_1:dc/one,
7:u0:them,
12:um_1:of/them,
8:u0:lives,
15:um_1:them/lives,
13:um_1:lives/in,
14:um_1:the/other,
16:um_1:other/lives,
23:um_1:airportCity/making,
23:um_1:evening/monthsName,
21:um_1:california/after,
23:um_1:early-afternoon/on,
12:um_1:okay/on,
12:u0:following,
18:um_1:the/following,
23:um_1:following/daysName,
19:um_1:airportCity/as,
30:um_1:american-airlines/leaving,
19:um_1:leaving/around,
17:um_1:around/630pm,
20:um_1:westchester/and,
6:u0:530,
16:um_1:between/530,
12:um_1:530/and,
25:u0:st.-petersburg-airport,
30:um_1:in/st.-petersburg-airport,
27:um_1:north-carolina/leaving,
15:um_1:daysName/i,
16:um_1:between/415,
12:um_1:415/and,
22:u0:trans-world-airline,
28:um_1:all/trans-world-airline,
32:um_1:trans-world-airline/flights,
9:u0:1030am,
19:um_1:between/1030am,
15:um_1:1030am/and,
9:u0:1130am,
15:um_1:and/1130am,
9:u0:1115am,
19:um_1:between/1115am,
15:um_1:1115am/and,
9:u0:1245pm,
15:um_1:and/1245pm,
15:um_1:around/1pm,
23:um_1:round-trip/airfare,
18:um_1:_x-1/shortest,
20:um_1:shortest/flight,
15:um_1:to/florida,
10:u0:departs,
17:um_1:that/departs,
4:u0:9,
14:um_1:departs/9,
8:u0:hours,
12:um_1:9/hours,
17:um_1:hours/before,
20:um_1:before/arriving,
19:u0:at-the-same-time,
30:um_1:arriving/at-the-same-time,
15:um_1:_x-1/price,
18:um_1:airlines/from,
19:um_1:what/limousine,
15:um_1:service/is,
10:um_1:is/in,
15:um_1:what/price,
13:um_1:price/is,
15:um_1:service/in,
13:u0:new-york's,
18:um_1:to/new-york's,
24:um_1:new-york's/downtown,
32:u0:toronto-international-airport,
39:um_1:from/toronto-international-airport,
37:um_1:toronto-international-airport/to,
17:um_1:what/airport,
10:u0:closest,
15:um_1:is/closest,
15:um_1:closest/to,
15:um_1:after/10am,
25:um_1:of/american-airlines,
5:u0:19,
14:um_1:flight/19,
12:um_1:19/from,
14:um_1:_x-1/fare,
11:um_1:y/what,
14:um_1:does/that,
14:um_1:that/mean,
16:um_1:daysName/on,
15:um_1:evening/on,
8:u0:230pm,
17:um_1:around/230pm,
16:um_1:st.-paul/on,
18:um_1:from/st.-paul,
16:um_1:st.-paul/to,
15:um_1:with/lunch,
17:um_1:lunch/served,
19:um_1:with/breakfast,
9:u0:supper,
16:um_1:with/supper,
18:um_1:supper/served,
7:u0:1205,
15:um_1:after/1205,
12:um_1:1205/in,
6:u0:305,
14:um_1:after/305,
11:um_1:305/in,
8:u0:723pm,
16:um_1:after/723pm,
21:um_1:flight-times/for,
25:um_1:flight-schedule/from,
9:u0:nights,
20:um_1:daysName/nights,
10:u0:fridays,
15:um_1:on/fridays,
21:um_1:shortest/morning,
27:um_1:_x-1/american-airlines,
17:um_1:us-air/fares,
18:um_1:_x-1/daysName,
13:um_1:okay/how,
15:um_1:me/morning,
31:um_1:continental-airlines/which,
14:um_1:depart/on,
14:um_1:include/a,
22:um_1:continental/which,
23:um_1:daysName/departing,
17:um_1:departing/on,
16:um_1:after/430pm,
8:u0:934pm,
16:um_1:after/934pm,
19:um_1:continental/on,
24:um_1:continental/leaving,
7:u0:2134,
15:um_1:after/2134,
26:um_1:continental/departing,
14:um_1:noon/from,
26:um_1:all/american-airlines,
14:um_1:arrive/on,
20:um_1:before/midnight,
13:um_1:and/list,
25:um_1:me/american-airlines,
22:um_1:and/new-york-city,
28:um_1:arrive/at-the-same-time,
23:um_1:twenty-seventh/and,
22:um_1:and/twenty-eighth,
11:u0:nonstops,
17:um_1:all/nonstops,
18:um_1:nonstops/from,
8:u0:vegas,
13:um_1:to/vegas,
15:um_1:vegas/that,
27:um_1:what/american-airlines,
21:um_1:milwaukee/depart,
23:um_1:depart/airportCity,
19:um_1:milwaukee/next,
4:u0:h,
11:um_1:code/h,
18:um_1:departs/after,
11:um_1:by/8pm,
14:um_1:_x-1/next,
13:u0:1200-hours,
21:um_1:after/1200-hours,
31:um_1:daysName/american-airlines,
34:um_1:airportCity/american-airlines,
12:um_1:me/next,
14:u0:wednesday's,
21:um_1:next/wednesday's,
24:um_1:wednesday's/flights,
18:um_1:and/milwaukee,
11:u0:friday's,
18:um_1:_x-1/friday's,
21:um_1:friday's/flights,
11:u0:sunday's,
18:um_1:_x-1/sunday's,
21:um_1:sunday's/flights,
25:um_1:between/indianapolis,
21:um_1:indianapolis/and,
23:um_1:the/twenty-seventh,
22:um_1:twenty-seventh/or,
11:um_1:or/the,
21:um_1:twenty-eighth/of,
16:um_1:florida/for,
22:um_1:twenty-seventh/of,
14:um_1:_x-1/last,
17:um_1:last/nonstop,
12:um_1:to/from,
16:um_1:between/6pm,
12:um_1:6pm/and,
12:um_1:and/8pm,
11:um_1:8pm/on,
25:um_1:the/american-airline,
29:um_1:american-airline/flights,
11:um_1:does/a,
16:um_1:us-air/cost,
15:um_1:tickets/on,
22:um_1:us-air/round-trip,
13:um_1:are/from,
20:um_1:what/round-trip,
16:um_1:tickets/are,
6:u0:mia,
11:um_1:is/mia,
6:u0:bna,
11:um_1:is/bna,
6:u0:ord,
13:um_1:does/ord,
13:um_1:ord/mean,
28:um_1:continental-airlines/on,
19:um_1:flights/arrive,
12:um_1:from/on,
22:um_1:continental/after,
6:u0:9pm,
14:um_1:after/9pm,
23:um_1:us-air/first-class,
14:um_1:us-air/on,
19:um_1:are/connecting,
17:um_1:a/connecting,
22:um_1:connecting/flight,
15:um_1:fifth/from,
15:um_1:first/from,
23:um_1:the/late-afternoon,
15:um_1:an/evening,
12:um_1:sixth/i,
12:um_1:book/an,
15:um_1:in/booking,
15:um_1:booking/an,
16:um_1:dallas/into,
17:um_1:returning/in,
22:um_1:twenty-second/and,
19:um_1:returning/late,
12:um_1:late/in,
15:um_1:am/looking,
13:um_1:that/use,
13:u0:love-field,
19:um_1:use/love-field,
18:um_1:to/love-field,
17:um_1:airlines/for,
10:um_1:to/or,
12:um_1:or/from,
20:um_1:from/love-field,
22:um_1:transportation/to,
17:um_1:flights/stop,
24:um_1:united-airlines/and,
12:u0:northwest,
18:um_1:and/northwest,
17:um_1:northwest/go,
15:um_1:go/through,
17:um_1:on/northwest,
18:um_1:northwest/and,
24:um_1:and/united-airlines,
25:um_1:united-airlines/stop,
19:um_1:what/northwest,
22:um_1:northwest/flights,
26:um_1:which/united-airlines,
19:um_1:does/northwest,
18:um_1:northwest/fly,
27:um_1:and/northwest-airlines,
28:um_1:northwest-airlines/that,
12:um_1:go/into,
26:um_1:on/northwest-airlines,
27:um_1:northwest-airlines/and,
25:um_1:united-airlines/that,
12:um_1:fly/out,
27:um_1:the/northwest-airlines,
31:um_1:northwest-airlines/flights,
20:u0:northwest-airline,
27:um_1:what/northwest-airline,
30:um_1:northwest-airline/flights,
18:um_1:of/love-field,
18:um_1:love-field/to,
11:um_1:to/any,
18:um_1:other/airport,
13:um_1:from/all,
16:um_1:airports/to,
18:um_1:new-jersey/by,
18:um_1:all/northwest,
19:um_1:with/stopovers,
17:um_1:stopovers/in,
24:um_1:all/united-airlines,
17:um_1:for/st.-paul,
11:um_1:dc/but,
17:um_1:but/stopover,
12:um_1:in/some,
15:um_1:some/other,
15:um_1:other/city,
11:um_1:dc/via,
14:um_1:via/other,
16:um_1:arriving/by,
15:um_1:numbers/of,
13:um_1:which/go,
21:um_1:via/indianapolis,
20:um_1:airportCity/fly,
14:um_1:arrive/by,
11:um_1:by/9pm,
34:u0:canadian-airlines-international,
40:um_1:for/canadian-airlines-international,
5:u0:cp,
12:um_1:that/cp,
12:um_1:cp/uses,
20:u0:canadian-airlines,
27:um_1:that/canadian-airlines,
27:um_1:canadian-airlines/uses,
10:u0:choices,
15:um_1:my/choices,
15:um_1:choices/of,
16:um_1:nonstop/twa,
12:um_1:twa/and,
14:um_1:the/718am,
17:um_1:718am/flight,
20:um_1:airportCity/twa,
12:um_1:the/twa,
16:um_1:twa/flights,
15:um_1:my/options,
16:um_1:options/for,
18:um_1:a/airportCity,
21:um_1:airportCity/back,
24:um_1:indianapolis/flight,
18:um_1:flight/around,
28:um_1:leaving/early-afternoon,
25:um_1:early-afternoon/from,
23:um_1:st.-paul/departing,
11:um_1:at/4pm,
23:um_1:earliest/breakfast,
21:um_1:breakfast/flight,
11:um_1:or/twa,
14:um_1:twa/which,
15:um_1:delta/that,
11:um_1:twa/to,
15:um_1:fares/less,
7:u0:1288,
14:um_1:than/1288,
19:um_1:least/one-stop,
6:u0:d10,
21:um_1:abbreviation/d10,
11:u0:takeoffs,
17:um_1:the/takeoffs,
17:um_1:takeoffs/and,
11:u0:landings,
17:um_1:and/landings,
17:um_1:landings/for,
33:u0:general-mitchell-international,
39:um_1:for/general-mitchell-international,
15:um_1:arrive/and,
41:u0:general-mitchell-international-airport,
48:um_1:from/general-mitchell-international-airport,
10:u0:takeoff,
20:um_1:flights/takeoff,
16:um_1:takeoff/and,
13:um_1:and/land,
38:um_1:at/general-mitchell-international,
17:um_1:that/takeoff,
17:um_1:takeoff/from,
40:um_1:from/general-mitchell-international,
16:um_1:landings/at,
27:u0:general-mitchell-airport,
32:um_1:at/general-mitchell-airport,
17:um_1:the/landings,
40:um_1:general-mitchell-international/from,
17:um_1:from/various,
19:um_1:various/cities,
46:um_1:at/general-mitchell-international-airport,
17:um_1:flights/land,
15:um_1:flights/at,
17:um_1:arriving/and,
18:um_1:and/departing,
17:um_1:all/takeoffs,
19:u0:general-mitchell,
26:um_1:from/general-mitchell,
40:um_1:into/general-mitchell-international,
29:um_1:united-airlines/arriving,
24:um_1:arriving/monthsName,
19:um_1:seventh/before,
24:um_1:long-beach/arriving,
13:u0:lunch-time,
21:um_1:after/lunch-time,
12:um_1:me/city,
16:um_1:city/served,
16:um_1:served/both,
12:um_1:both/by,
12:u0:nationair,
17:um_1:by/nationair,
18:um_1:nationair/and,
40:um_1:and/canadian-airlines-international,
6:u0:yyz,
11:um_1:is/yyz,
25:u0:lester-pearson-airport,
30:um_1:is/lester-pearson-airport,
18:um_1:all/nationair,
22:um_1:nationair/flights,
16:um_1:what/cities,
39:um_1:by/canadian-airlines-international,
41:um_1:does/canadian-airlines-international,
40:um_1:canadian-airlines-international/fly,
7:u0:11pm,
15:um_1:after/11pm,
10:u0:midwest,
17:um_1:does/midwest,
10:u0:express,
20:um_1:midwest/express,
17:um_1:express/have,
18:um_1:express/serve,
20:um_1:serve/nashville,
17:um_1:that/midwest,
19:um_1:express/serves,
22:um_1:travel/round-trip,
17:um_1:of/milwaukee,
15:um_1:many/fares,
18:um_1:there/one-way,
16:um_1:united/have,
15:um_1:all/cities,
17:um_1:cities/today,
19:um_1:airports/today,
21:um_1:have/first-class,
18:um_1:flights/today,
17:um_1:what/classes,
17:um_1:service/does,
24:um_1:fourteenth/arriving,
22:um_1:fifteenth/leaving,
19:um_1:leaving/either,
16:um_1:either/from,
14:um_1:or/dallas,
15:um_1:the/dinner,
19:um_1:dinner/flights,
16:um_1:the/one-way,
28:um_1:westchester-county/with,
10:u0:highest,
16:um_1:the/highest,
17:um_1:highest/fare,
20:um_1:highest/one-way,
0=0x1.4ccf3b85c8b09p+3
77=0x1.b1a62d97b02e7p+2
154=0x1.b41a09194127ap+2
308=0x1.f174eed2c53ccp+2
462=0x1.48578737610a1p+5
616=0x1.ee8074bbfd154p+2
693=0x1.022559ae569a2p+0
847=0x1.2df39589b39e3p+3
848=0x1.21f797ad4a753p+4
851=0x1.28f43617ca565p+4
858=0x1.f9f3bbac0e659p+1
859=0x1.0a44df9e1fb56p+4
860=0x1.0ac1bda977994p+4
863=0x1.098664e6dc6c6p+2
866=0x1.e45812d14d61bp+2
889=0x1.0c012187eacadp+2
924=0x1.65cf7590384fbp+2
925=0x1.089007d34dd12p+3
928=-0x1.378db1aa4459ep+3
937=0x1.5f9291df578d1p+2
966=0x1.152ece8fed05cp+2
1001=0x1.6d3619f4c7396p+4
1078=0x1.e8d687778eb2fp+2
1157=0x1.67fc57a1a3c02p+3
1202=0x1.e72929302f5a3p+2
1220=0x1.c5d16a731a773p+2
1234=0x1.5efe5d2fadb27p+2
1279=0x1.adbb3067b9d39p+2
1297=0x1.2650598ec3976p+2
1312=0x1.ceca724bcf28fp+2
1335=0x1.50cd9d99bf0fcp+1
1373=0x1.b6c6bb27dda13p+0
1385=0x1.a4c868e536ffap+1
1450=0x1.1fe3c97943a9fp+1
1463=0x1.67715a608f031p+5
1617=0x1.28ba92964a449p+1
1618=0x1.35e5db5497ef6p+2
1621=0x1.9a922545b3845p+2
1629=0x1.0f55d21244cf8p+2
1630=0x1.0822823ffa393p+2
1698=0x1.4454ca31860bbp+2
1771=0x1.0d21b9864644cp+3
1848=0x1.76d07b7c97968p-1
1925=0x1.e93cdb217ba79p+2
2002=0x1.1e5e64362ac73p+1
2079=0x1.6eb12aaeb9cbep-2
2156=0x1.2e94dbabfc9f3p+3
2233=0x1.e63266d6613f6p-3
2315=0x1.a53b1d46b3f74p+2
2464=0x1.3bec236b3da9dp+3
2619=0x1.ac6878dafd56ep+2
2622=0x1.dfbc66f95b7a1p+2
2631=0x1.0ebc268f912c6p+2
2696=-0x1.8c27fcd86816cp-1
2699=0x1.a411d0b7a1072p+1
2772=0x1.6ab0313813beep+3
2927=0x1.e5d4d75a3cf6bp+1
2930=0x1.311f869b8cec3p-1
2938=-0x1.0ba0437aa480cp-2
2939=-0x1.d9a35904e08cp-3
3003=0x1.e1b9669ec70f5p+2
3080=0x1.39dfd19cf2e8ap-1
3157=0x1.e8568f9e53023p+4
3317=0x1.9e488989bd33fp+2
3394=0x1.b2380c7c12a54p+1
3465=0x1.3b1221d7657a9p+3
3697=-0x1.379a26c34f9c6p+3
3700=0x1.27d9b48603213p+4
3712=0x1.0795857b53f0cp+2
3773=0x1.13ecddf87eb83p+4
3851=0x1.da1d05819611ap+2
3927=0x1.ebb31ca9ec231p+0
4085=0x1.d987753913c51p+2
4158=0x1.f945b870af283p+1
4235=0x1.26c29386bfdb7p+3
4389=0x1.f1f108bf211b3p+2
4466=0x1.8dbb3c7886a0fp-2
4543=0x1.20dd8edbc8f2p+4
4697=0x1.702462ebbb9d4p+2
4781=0x1.1dce8e92942fbp+1
4858=0x1.1dce8e92942fbp+1
4928=0x1.7fa095dea0084p+3
5082=0x1.b4c7a59574242p-1
5162=0x1.dde1a4ebefd61p+2
5185=0x1.df2fe6cf784d5p+1
5223=0x1.02c636c20b34cp+2
5239=0x1.c88a08dbb0bcap-1
5262=0x1.baaaf244e04fap+0
5321=0x1.f146d35d06b8dp+2
5346=0x1.9f2263c766908p+2
5398=0x1.8852791142945p-4
5476=0x1.1551e6f32561bp+2
5485=0x1.bd2177c1770d7p+0
5553=0x1.2116f19ee6696p+0
5699=-0x1.ef751cb4169c6p-3
5702=0x1.37b1899ff77f8p+2
5775=0x1.546a246bd5513p+1
5852=0x1.151d51c3b5da7p+4
5929=0x1.ffe156f26d54ep+3
6006=0x1.1aeab7aec471fp+5
6083=0x1.d4bf08348eef3p+0
6160=0x1.0380d35f5e247p+3
6314=0x1.13c46901684cep+3
6391=0x1.4070ab2420936p-1
6468=0x1.29ab18821b4b2p+3
6622=0x1.375192ece14b3p+3
6777=-0x1.2d1375b934c82p+0
6780=0x1.1093eb72030cdp+2
6853=0x1.0ff5183e2cae6p+3
6930=0x1.4036da3d4bef3p-1
7085=0x1.82dc26d242f5cp+3
7088=0x1.4e7c61fe1a42ep+3
7096=0x1.be1c1850b9a07p+3
7097=0x1.b0d3e2e4f201fp+3
7161=0x1.3d2276a3467p+3
7315=0x1.f0e26aeaea846p+2
7392=0x1.4cf2723c8f326p+0
7469=0x1.b2f00feab3972p+3
7623=0x1.1e4211a803e49p+4
7700=0x1.13baecdf1bb1p+2
7854=0x1.e3d94f717367fp+2
7931=0x1.fb5a7f10c3a1cp+0
8008=0x1.15d9d8f0556fcp+1
8162=0x1.ba7f1c3f04df4p+1
8169=0x1.13aff8581e355p+2
8228=0x1.08597ff9f9f9cp+1
8246=0x1.0fba757d95b59p+1
8316=0x1.58a518f003388p+2
8480=0x1.7e381e8b0c601p+2
8524=0x1.02b0dfab1f9d1p+1
8557=0x1.e429443052c6p-3
8701=0x1.77cbde37188c2p+2
8778=0x1.4ac20aa1130e5p+3
9168=0x1.10e72f592c55dp+3
9245=0x1.829d588a50eadp+0
9317=0x1.1aec501d539aep+3
9553=0x1.98bc2f3b55b86p-1
9702=0x1.c6da7a0ca4533p+3
9934=0x1.efa91907f476dp+1
9937=0x1.1b81a720bb8d9p+2
9945=0x1.33411ac0473c4p+1
9946=0x1.c27c76c57a8b1p+1
10014=0x1.d60fcfa36242ep-1
10098=0x1.1dce8e92942fbp+1
10175=0x1.1dce8e92942fbp+1
10473=0x1.94c96f279a38ap+1
10626=0x1.38de7c95a7c41p+3
10857=0x1.e23f1c6e0c02ap+2
10881=0x1.e44413b72e1dfp+1
11089=0x1.2f614560c8504p-2
11092=-0x1.05eea63ac9d1dp-2
11100=0x1.60bc7e8213124p+1
11101=0x1.a0d1d43e01f21p+0
11242=0x1.3dcde3565bff7p+3
11781=0x1.0d4ecac43b501p+3
11858=0x1.043a44c68bfc1p-1
12012=0x1.3a15216f8f1d3p+3
12166=0x1.9a68e3561fee2p+2
12243=0x1.a6f46f248826ep+1
12551=0x1.0c829101d97c6p+3
12782=0x1.f0fa9f61e60bcp+2
12859=0x1.0f42f37a2981cp+0
13168=0x1.e8c3ef6d257dcp+1
13171=-0x1.581b7b564de7cp+0
13412=0x1.86501256b7c4bp+2
13629=0x1.c3f442fff7e43p+2
13868=0x1.843b3cf5bd49bp-1
13893=0x1.74de4f00f9dc6p+0
13946=0x1.310fd4585aec5p+2
13955=0x1.2542ff96e8529p+1
13994=0x1.22e6f2312b5d3p+1
14023=0x1.de4c2c0c018b6p+0
14032=0x1.dac252932553p+1
14168=0x1.04e96d6c8fff7p+3
14245=0x1.07340fe548e7cp-2
14399=0x1.b7e1f72f8bc64p+2
14476=0x1.806484b57686cp+0
14630=0x1.eaa2f56d0f546p+2
14784=0x1.31ac921f94633p+3
14938=0x1.929ce7176d561p+1
15015=0x1.929ce7176d561p+1
15246=0x1.1dce8e92942fbp+1
15323=0x1.1dce8e92942fbp+1
15477=0x1.01bcffe9905ccp+3
15713=0x1.1307cbbc5558dp+3
15939=0x1.81d86ac79fa91p+2
16247=0x1.4f52fe649ed72p+2
16401=0x1.65c44ac1efcbp-7
16709=0x1.1dce8e92942fbp+1
16786=0x1.1dce8e92942fbp+1
16863=0x1.9b665dd0e1459p+2
17094=0x1.7a96f643942aep+2
17333=0x1.58fda0c457697p-1
17411=0x1.1dce8e92942fbp+1
17488=0x1.1dce8e92942fbp+1
17715=0x1.d25cdec5ecaa2p-1
17871=0x1.aa05319a26c3dp+1
17948=0x1.aa05319a26c3dp+1
18249=0x1.648f4fc297b17p+1
18264=0x1.976ec2a657418p+2
18286=0x1.8dfd322ada383p+1
